<?xml version="1.0"?>
<MethodSetup Method="BDT::BDTG">
  <GeneralInfo>
    <Info name="TMVA Release" value="4.2.1 [262657]"/>
    <Info name="ROOT Release" value="6.12/07 [396295]"/>
    <Info name="Creator" value="zzshi"/>
    <Info name="Date" value="Sun Jul 26 00:35:00 2020"/>
    <Info name="Host" value="Linux vocms0315.cern.ch 2.6.32-696.30.1.el6.x86_64 #1 SMP Tue May 22 06:09:36 CEST 2018 x86_64 x86_64 x86_64 GNU/Linux"/>
    <Info name="Dir" value="/export/d00/scratch/zzshi/CMSSW_10_3_2/src/BmesonppTMVA/TMVA/BmesonRun2018/tmva/train"/>
    <Info name="Training events" value="497"/>
    <Info name="TrainingTime" value="1.81614861e+01"/>
    <Info name="AnalysisType" value="Classification"/>
  </GeneralInfo>
  <Options>
    <Option name="V" modified="Yes">False</Option>
    <Option name="VerbosityLevel" modified="No">Default</Option>
    <Option name="VarTransform" modified="No">None</Option>
    <Option name="H" modified="Yes">False</Option>
    <Option name="CreateMVAPdfs" modified="No">False</Option>
    <Option name="IgnoreNegWeightsInTraining" modified="No">False</Option>
    <Option name="NTrees" modified="Yes">500</Option>
    <Option name="MaxDepth" modified="Yes">4</Option>
    <Option name="MinNodeSize" modified="Yes">5.0%</Option>
    <Option name="nCuts" modified="Yes">15000</Option>
    <Option name="BoostType" modified="Yes">Grad</Option>
    <Option name="AdaBoostR2Loss" modified="No">quadratic</Option>
    <Option name="UseBaggedBoost" modified="Yes">True</Option>
    <Option name="Shrinkage" modified="Yes">5.000000e-01</Option>
    <Option name="AdaBoostBeta" modified="No">5.000000e-01</Option>
    <Option name="UseRandomisedTrees" modified="No">False</Option>
    <Option name="UseNvars" modified="No">4</Option>
    <Option name="UsePoissonNvars" modified="No">True</Option>
    <Option name="BaggedSampleFraction" modified="Yes">5.000000e-01</Option>
    <Option name="UseYesNoLeaf" modified="No">True</Option>
    <Option name="NegWeightTreatment" modified="No">pray</Option>
    <Option name="Css" modified="No">1.000000e+00</Option>
    <Option name="Cts_sb" modified="No">1.000000e+00</Option>
    <Option name="Ctb_ss" modified="No">1.000000e+00</Option>
    <Option name="Cbb" modified="No">1.000000e+00</Option>
    <Option name="NodePurityLimit" modified="No">5.000000e-01</Option>
    <Option name="SeparationType" modified="No">giniindex</Option>
    <Option name="RegressionLossFunctionBDTG" modified="No">huber</Option>
    <Option name="HuberQuantile" modified="No">7.000000e-01</Option>
    <Option name="DoBoostMonitor" modified="No">False</Option>
    <Option name="UseFisherCuts" modified="No">False</Option>
    <Option name="MinLinCorrForFisher" modified="No">8.000000e-01</Option>
    <Option name="UseExclusiveVars" modified="No">False</Option>
    <Option name="DoPreselection" modified="No">False</Option>
    <Option name="SigToBkgFraction" modified="No">1.000000e+00</Option>
    <Option name="PruneMethod" modified="No">nopruning</Option>
    <Option name="PruneStrength" modified="No">0.000000e+00</Option>
    <Option name="PruningValFraction" modified="No">5.000000e-01</Option>
    <Option name="SkipNormalization" modified="No">False</Option>
    <Option name="nEventsMin" modified="No">0</Option>
    <Option name="UseBaggedGrad" modified="No">False</Option>
    <Option name="GradBaggingFraction" modified="No">5.000000e-01</Option>
    <Option name="UseNTrainEvents" modified="No">0</Option>
    <Option name="NNodesMax" modified="No">0</Option>
  </Options>
  <Variables NVar="14">
    <Variable VarIndex="0" Expression="Btrk1Pt" Label="Btrk1Pt" Title="Btrk1Pt" Unit="" Internal="Btrk1Pt" Type="F" Min="1.00023019e+00" Max="2.88814664e+00"/>
    <Variable VarIndex="1" Expression="Btrk2Pt" Label="Btrk2Pt" Title="Btrk2Pt" Unit="" Internal="Btrk2Pt" Type="F" Min="1.00342953e+00" Max="2.80353141e+00"/>
    <Variable VarIndex="2" Expression="abs(Btrk1Dz1/Btrk1DzError1)" Label="Trk1DCAz" Title="Trk1DCAz" Unit="" Internal="Trk1DCAz" Type="F" Min="9.25540566e-01" Max="7.69133972e+02"/>
    <Variable VarIndex="3" Expression="abs(Btrk2Dz1/Btrk2DzError1)" Label="Trk2DCAz" Title="Trk2DCAz" Unit="" Internal="Trk2DCAz" Type="F" Min="3.79844904e-01" Max="8.51585205e+02"/>
    <Variable VarIndex="4" Expression="abs(Btrk1Dxy1/Btrk1DxyError1)" Label="Trk1DCAxy" Title="Trk1DCAxy" Unit="" Internal="Trk1DCAxy" Type="F" Min="2.27657310e-03" Max="1.34370089e+01"/>
    <Variable VarIndex="5" Expression="abs(Btrk2Dxy1/Btrk2DxyError1)" Label="Trk2DCAxy" Title="Trk2DCAxy" Unit="" Internal="Trk2DCAxy" Type="F" Min="1.65815419e-03" Max="1.45523119e+01"/>
    <Variable VarIndex="6" Expression="abs(Btktkmass-1.019455)" Label="MassDis" Title="MassDis" Unit="" Internal="MassDis" Type="F" Min="7.52639764e-08" Max="1.49943391e-02"/>
    <Variable VarIndex="7" Expression="BsvpvDistance/BsvpvDisErr" Label="dls" Title="dls" Unit="" Internal="dls" Type="F" Min="2.05552816e+00" Max="8.48416321e+02"/>
    <Variable VarIndex="8" Expression="Balpha" Label="Balpha" Title="Balpha" Unit="" Internal="Balpha" Type="F" Min="7.88328424e-02" Max="3.01379061e+00"/>
    <Variable VarIndex="9" Expression="Bd0" Label="dls2D" Title="dls2D" Unit="" Internal="dls2D" Type="F" Min="3.00208223e-04" Max="1.85881943e-01"/>
    <Variable VarIndex="10" Expression="cos(Bdtheta)" Label="cos(Bdtheta)" Title="cos(Bdtheta)" Unit="" Internal="cos_Bdtheta_" Type="F" Min="-9.99996305e-01" Max="1.00000000e+00"/>
    <Variable VarIndex="11" Expression="Bchi2cl" Label="Bchi2cl" Title="Bchi2cl" Unit="" Internal="Bchi2cl" Type="F" Min="5.02187535e-02" Max="9.99463856e-01"/>
    <Variable VarIndex="12" Expression="Btrk1Eta" Label="Btrk1Eta" Title="Btrk1Eta" Unit="" Internal="Btrk1Eta" Type="F" Min="-2.39695096e+00" Max="2.39785266e+00"/>
    <Variable VarIndex="13" Expression="Btrk2Eta" Label="Btrk2Eta" Title="Btrk2Eta" Unit="" Internal="Btrk2Eta" Type="F" Min="-2.38564491e+00" Max="2.39976144e+00"/>
  </Variables>
  <Spectators NSpec="0"/>
  <Classes NClass="2">
    <Class Name="Signal" Index="0"/>
    <Class Name="Background" Index="1"/>
  </Classes>
  <Transformations NTransformations="0"/>
  <MVAPdfs/>
  <Weights NTrees="500" AnalysisType="1">
    <BinaryTree type="DecisionTree" boostWeight="1.0000000000000000e+00" itree="0">
      <Node pos="s" depth="0" NCoef="0" IVar="9" Cut="1.5375190414488316e-02" cType="1" res="-5.0294976681470871e-02" rms="4.9746397137641907e-01" purity="4.4970503449440002e-01" nType="0">
        <Node pos="l" depth="1" NCoef="0" IVar="10" Cut="6.5427970886230469e-01" cType="1" res="-4.1323113441467285e-01" rms="2.8149607777595520e-01" purity="8.6768873035907745e-02" nType="0">
          <Node pos="l" depth="2" NCoef="0" IVar="6" Cut="1.7096442170441151e-03" cType="1" res="-5.0000000000000000e-01" rms="0.0000000000000000e+00" purity="0.0000000000000000e+00" nType="0">
            <Node pos="l" depth="3" NCoef="0" IVar="-1" Cut="0.0000000000000000e+00" cType="1" res="-5.0000000000000000e-01" rms="0.0000000000000000e+00" purity="0.0000000000000000e+00" nType="-99"/>
            <Node pos="r" depth="3" NCoef="0" IVar="4" Cut="9.6610569953918457e-01" cType="1" res="-5.0000000000000000e-01" rms="0.0000000000000000e+00" purity="0.0000000000000000e+00" nType="0">
              <Node pos="l" depth="4" NCoef="0" IVar="-1" Cut="0.0000000000000000e+00" cType="1" res="-5.0000000000000000e-01" rms="0.0000000000000000e+00" purity="0.0000000000000000e+00" nType="-99"/>
              <Node pos="r" depth="4" NCoef="0" IVar="-1" Cut="0.0000000000000000e+00" cType="1" res="-5.0000000000000000e-01" rms="0.0000000000000000e+00" purity="0.0000000000000000e+00" nType="-99"/>
            </Node>
          </Node>
          <Node pos="r" depth="2" NCoef="0" IVar="7" Cut="9.1295677185058594e+01" cType="1" res="-2.3408652842044830e-01" rms="4.4181838631629944e-01" purity="2.6591348648071289e-01" nType="0">
            <Node pos="l" depth="3" NCoef="0" IVar="-1" Cut="0.0000000000000000e+00" cType="1" res="2.0777117460966110e-02" rms="4.9956813454627991e-01" purity="5.2077710628509521e-01" nType="-99"/>
            <Node pos="r" depth="3" NCoef="0" IVar="-1" Cut="0.0000000000000000e+00" cType="1" res="-5.0000000000000000e-01" rms="0.0000000000000000e+00" purity="0.0000000000000000e+00" nType="-99"/>
          </Node>
        </Node>
        <Node pos="r" depth="1" NCoef="0" IVar="7" Cut="1.5655162048339844e+02" cType="1" res="3.9574009180068970e-01" rms="3.0559739470481873e-01" purity="8.9574009180068970e-01" nType="0">
          <Node pos="l" depth="2" NCoef="0" IVar="2" Cut="1.0936102867126465e+01" cType="1" res="4.5091909170150757e-01" rms="2.1603699028491974e-01" purity="9.5091909170150757e-01" nType="0">
            <Node pos="l" depth="3" NCoef="0" IVar="-1" Cut="0.0000000000000000e+00" cType="1" res="3.0225652456283569e-01" rms="3.9829760789871216e-01" purity="8.0225652456283569e-01" nType="-99"/>
            <Node pos="r" depth="3" NCoef="0" IVar="7" Cut="4.0722858428955078e+01" cType="1" res="4.9109363555908203e-01" rms="9.3952327966690063e-02" purity="9.9109363555908203e-01" nType="0">
              <Node pos="l" depth="4" NCoef="0" IVar="-1" Cut="0.0000000000000000e+00" cType="1" res="4.7659710049629211e-01" rms="1.5117940306663513e-01" purity="9.7659713029861450e-01" nType="-99"/>
              <Node pos="r" depth="4" NCoef="0" IVar="-1" Cut="0.0000000000000000e+00" cType="1" res="5.0000000000000000e-01" rms="0.0000000000000000e+00" purity="1.0000000000000000e+00" nType="-99"/>
            </Node>
          </Node>
          <Node pos="r" depth="2" NCoef="0" IVar="-1" Cut="0.0000000000000000e+00" cType="1" res="1.0582010261714458e-02" rms="4.9988800287246704e-01" purity="5.1058202981948853e-01" nType="-99"/>
        </Node>
      </Node>
    </BinaryTree>
    <BinaryTree type="DecisionTree" boostWeight="1.0000000000000000e+00" itree="1">
      <Node pos="s" depth="0" NCoef="0" IVar="7" Cut="1.6551940917968750e+02" cType="1" res="5.4127372801303864e-02" rms="3.6373367905616760e-01" purity="5.4579347372055054e-01" nType="0">
        <Node pos="l" depth="1" NCoef="0" IVar="10" Cut="4.7950389981269836e-01" cType="1" res="1.6700185835361481e-01" rms="3.5043910145759583e-01" purity="7.2513025999069214e-01" nType="0">
          <Node pos="l" depth="2" NCoef="0" IVar="8" Cut="2.3694011569023132e-01" cType="1" res="-1.5525728464126587e-01" rms="3.5292431712150574e-01" purity="1.3133719563484192e-01" nType="0">
            <Node pos="l" depth="3" NCoef="0" IVar="-1" Cut="0.0000000000000000e+00" cType="1" res="6.0832403600215912e-02" rms="4.6522200107574463e-01" purity="3.1678295135498047e-01" nType="-99"/>
            <Node pos="r" depth="3" NCoef="0" IVar="-1" Cut="0.0000000000000000e+00" cType="1" res="-3.7376907467842102e-01" rms="9.7894713282585144e-02" purity="0.0000000000000000e+00" nType="-99"/>
          </Node>
          <Node pos="r" depth="2" NCoef="0" IVar="7" Cut="8.4381164550781250e+01" cType="1" res="2.3175111413002014e-01" rms="3.1208628416061401e-01" purity="8.4443682432174683e-01" nType="0">
            <Node pos="l" depth="3" NCoef="0" IVar="10" Cut="8.3661323785781860e-01" cType="1" res="2.9261282086372375e-01" rms="2.5907000899314880e-01" purity="9.3411260843276978e-01" nType="0">
              <Node pos="l" depth="4" NCoef="0" IVar="-1" Cut="0.0000000000000000e+00" cType="1" res="6.0000145435333252e-01" rms="2.8599044680595398e-01" purity="9.2058193683624268e-01" nType="-99"/>
              <Node pos="r" depth="4" NCoef="0" IVar="-1" Cut="0.0000000000000000e+00" cType="1" res="2.8551751375198364e-01" rms="2.1578438580036163e-01" purity="9.3731647729873657e-01" nType="-99"/>
            </Node>
            <Node pos="r" depth="3" NCoef="0" IVar="10" Cut="9.6506798267364502e-01" cType="1" res="5.0498407334089279e-02" rms="3.7906828522682190e-01" purity="5.7737284898757935e-01" nType="0">
              <Node pos="l" depth="4" NCoef="0" IVar="-1" Cut="0.0000000000000000e+00" cType="1" res="-3.9922085404396057e-01" rms="1.3366366922855377e-01" purity="0.0000000000000000e+00" nType="-99"/>
              <Node pos="r" depth="4" NCoef="0" IVar="-1" Cut="0.0000000000000000e+00" cType="1" res="3.0294132232666016e-01" rms="3.0747565627098083e-01" purity="9.0533047914505005e-01" nType="-99"/>
            </Node>
          </Node>
        </Node>
        <Node pos="r" depth="1" NCoef="0" IVar="9" Cut="1.2054205872118473e-02" cType="1" res="-2.8939473628997803e-01" rms="6.6451407968997955e-02" purity="0.0000000000000000e+00" nType="0">
          <Node pos="l" depth="2" NCoef="0" IVar="12" Cut="-1.5024410486221313e+00" cType="1" res="-2.6894143223762512e-01" rms="-nan" purity="0.0000000000000000e+00" nType="0">
            <Node pos="l" depth="3" NCoef="0" IVar="-1" Cut="0.0000000000000000e+00" cType="1" res="-3.4196987748146057e-01" rms="0.0000000000000000e+00" purity="0.0000000000000000e+00" nType="-99"/>
            <Node pos="r" depth="3" NCoef="0" IVar="8" Cut="4.7135347127914429e-01" cType="1" res="-2.6894143223762512e-01" rms="0.0000000000000000e+00" purity="0.0000000000000000e+00" nType="0">
              <Node pos="l" depth="4" NCoef="0" IVar="-1" Cut="0.0000000000000000e+00" cType="1" res="-3.4196987748146057e-01" rms="0.0000000000000000e+00" purity="0.0000000000000000e+00" nType="-99"/>
              <Node pos="r" depth="4" NCoef="0" IVar="-1" Cut="0.0000000000000000e+00" cType="1" res="-3.4196987748146057e-01" rms="0.0000000000000000e+00" purity="0.0000000000000000e+00" nType="-99"/>
            </Node>
          </Node>
          <Node pos="r" depth="2" NCoef="0" IVar="-1" Cut="0.0000000000000000e+00" cType="1" res="-4.2526957392692566e-01" rms="1.1758232861757278e-01" purity="0.0000000000000000e+00" nType="-99"/>
        </Node>
      </Node>
    </BinaryTree>
    <BinaryTree type="DecisionTree" boostWeight="1.0000000000000000e+00" itree="2">
      <Node pos="s" depth="0" NCoef="0" IVar="7" Cut="8.3639266967773438e+01" cType="1" res="6.6165598109364510e-03" rms="2.6959434151649475e-01" purity="4.8353612422943115e-01" nType="0">
        <Node pos="l" depth="1" NCoef="0" IVar="5" Cut="1.0626796483993530e+00" cType="1" res="1.1591338366270065e-01" rms="2.6810470223426819e-01" purity="7.8395533561706543e-01" nType="0">
          <Node pos="l" depth="2" NCoef="0" IVar="10" Cut="4.7958296537399292e-01" cType="1" res="-1.3814599253237247e-02" rms="3.3624857664108276e-01" purity="5.3685677051544189e-01" nType="0">
            <Node pos="l" depth="3" NCoef="0" IVar="-1" Cut="0.0000000000000000e+00" cType="1" res="-3.3103153109550476e-01" rms="7.2582460939884186e-02" purity="0.0000000000000000e+00" nType="-99"/>
            <Node pos="r" depth="3" NCoef="0" IVar="-1" Cut="0.0000000000000000e+00" cType="1" res="1.1964814364910126e-01" rms="3.6736363172531128e-01" purity="8.0953288078308105e-01" nType="-99"/>
          </Node>
          <Node pos="r" depth="2" NCoef="0" IVar="8" Cut="2.9083693027496338e+00" cType="1" res="1.8116098642349243e-01" rms="1.9607438147068024e-01" purity="9.0823531150817871e-01" nType="0">
            <Node pos="l" depth="3" NCoef="0" IVar="8" Cut="2.0237280428409576e-01" cType="1" res="2.2032342851161957e-01" rms="1.6153241693973541e-01" purity="9.6307390928268433e-01" nType="0">
              <Node pos="l" depth="4" NCoef="0" IVar="-1" Cut="0.0000000000000000e+00" cType="1" res="4.0795195102691650e-01" rms="2.0606575906276703e-01" purity="9.7835838794708252e-01" nType="-99"/>
              <Node pos="r" depth="4" NCoef="0" IVar="-1" Cut="0.0000000000000000e+00" cType="1" res="2.8345602750778198e-01" rms="9.5227241516113281e-02" purity="9.5170414447784424e-01" nType="-99"/>
            </Node>
            <Node pos="r" depth="3" NCoef="0" IVar="-1" Cut="0.0000000000000000e+00" cType="1" res="9.3582473695278168e-02" rms="2.3959432542324066e-01" purity="7.3007291555404663e-01" nType="-99"/>
          </Node>
        </Node>
        <Node pos="r" depth="1" NCoef="0" IVar="1" Cut="1.7929531335830688e+00" cType="1" res="-1.1598055064678192e-01" rms="2.1248535811901093e-01" purity="1.4655908942222595e-01" nType="0">
          <Node pos="l" depth="2" NCoef="0" IVar="0" Cut="1.7166650295257568e+00" cType="1" res="-1.4811012148857117e-01" rms="1.5542104840278625e-01" purity="1.0449942946434021e-01" nType="0">
            <Node pos="l" depth="3" NCoef="0" IVar="9" Cut="1.2123540975153446e-02" cType="1" res="-1.7849859595298767e-01" rms="1.1770733445882797e-01" purity="2.6651937514543533e-02" nType="0">
              <Node pos="l" depth="4" NCoef="0" IVar="-1" Cut="0.0000000000000000e+00" cType="1" res="-2.8167289495468140e-01" rms="8.4930427372455597e-02" purity="3.2057136297225952e-02" nType="-99"/>
              <Node pos="r" depth="4" NCoef="0" IVar="-1" Cut="0.0000000000000000e+00" cType="1" res="-4.1808196902275085e-01" rms="1.8462973833084106e-01" purity="0.0000000000000000e+00" nType="-99"/>
            </Node>
            <Node pos="r" depth="3" NCoef="0" IVar="-1" Cut="0.0000000000000000e+00" cType="1" res="-6.0876775532960892e-02" rms="2.1455991268157959e-01" purity="3.8735574483871460e-01" nType="-99"/>
          </Node>
          <Node pos="r" depth="2" NCoef="0" IVar="-1" Cut="0.0000000000000000e+00" cType="1" res="1.8944007158279419e-01" rms="3.6721315979957581e-01" purity="4.4521337747573853e-01" nType="-99"/>
        </Node>
      </Node>
    </BinaryTree>
    <BinaryTree type="DecisionTree" boostWeight="1.0000000000000000e+00" itree="3">
      <Node pos="s" depth="0" NCoef="0" IVar="5" Cut="7.8027302026748657e-01" cType="1" res="2.7734242379665375e-02" rms="2.7166876196861267e-01" purity="5.4253524541854858e-01" nType="0">
        <Node pos="l" depth="1" NCoef="0" IVar="2" Cut="2.2806850433349609e+01" cType="1" res="-1.2584151327610016e-01" rms="2.6524287462234497e-01" purity="1.7985753715038300e-01" nType="0">
          <Node pos="l" depth="2" NCoef="0" IVar="-1" Cut="0.0000000000000000e+00" cType="1" res="-5.3720724582672119e-01" rms="3.5345619916915894e-01" purity="1.5470942854881287e-01" nType="-99"/>
          <Node pos="r" depth="2" NCoef="0" IVar="13" Cut="-2.0693233013153076e+00" cType="1" res="-8.0993920564651489e-02" rms="2.1765547990798950e-01" purity="1.8486590683460236e-01" nType="0">
            <Node pos="l" depth="3" NCoef="0" IVar="-1" Cut="0.0000000000000000e+00" cType="1" res="9.8407596349716187e-02" rms="1.4784443378448486e-01" purity="6.0715687274932861e-01" nType="-99"/>
            <Node pos="r" depth="3" NCoef="0" IVar="11" Cut="6.6347694396972656e-01" cType="1" res="-1.1434394121170044e-01" rms="2.1998414397239685e-01" purity="7.7315978705883026e-02" nType="0">
              <Node pos="l" depth="4" NCoef="0" IVar="-1" Cut="0.0000000000000000e+00" cType="1" res="-1.5587241947650909e-01" rms="2.1463820338249207e-01" purity="1.0545007139444351e-01" nType="-99"/>
              <Node pos="r" depth="4" NCoef="0" IVar="-1" Cut="0.0000000000000000e+00" cType="1" res="-4.0694898366928101e-01" rms="1.8860450387001038e-01" purity="0.0000000000000000e+00" nType="-99"/>
            </Node>
          </Node>
        </Node>
        <Node pos="r" depth="1" NCoef="0" IVar="10" Cut="4.9043580889701843e-01" cType="1" res="1.1333075910806656e-01" rms="2.3506286740303040e-01" purity="7.4467611312866211e-01" nType="0">
          <Node pos="l" depth="2" NCoef="0" IVar="13" Cut="-1.7006762027740479e+00" cType="1" res="-1.0066252201795578e-01" rms="1.8105652928352356e-01" purity="6.6266089677810669e-02" nType="0">
            <Node pos="l" depth="3" NCoef="0" IVar="-1" Cut="0.0000000000000000e+00" cType="1" res="-2.6192238554358482e-02" rms="2.7630513906478882e-01" purity="1.8820087611675262e-01" nType="-99"/>
            <Node pos="r" depth="3" NCoef="0" IVar="-1" Cut="0.0000000000000000e+00" cType="1" res="-2.9998797178268433e-01" rms="5.2646156400442123e-02" purity="0.0000000000000000e+00" nType="-99"/>
          </Node>
          <Node pos="r" depth="2" NCoef="0" IVar="2" Cut="1.3760870361328125e+02" cType="1" res="1.7232602834701538e-01" rms="2.1294380724430084e-01" purity="9.3170523643493652e-01" nType="0">
            <Node pos="l" depth="3" NCoef="0" IVar="0" Cut="1.1630920171737671e+00" cType="1" res="1.1946701258420944e-01" rms="1.2563884258270264e-01" purity="9.5031332969665527e-01" nType="0">
              <Node pos="l" depth="4" NCoef="0" IVar="-1" Cut="0.0000000000000000e+00" cType="1" res="6.8628065288066864e-02" rms="2.1326577663421631e-01" purity="7.7665996551513672e-01" nType="-99"/>
              <Node pos="r" depth="4" NCoef="0" IVar="-1" Cut="0.0000000000000000e+00" cType="1" res="2.8164640069007874e-01" rms="8.9184850454330444e-02" purity="9.8509061336517334e-01" nType="-99"/>
            </Node>
            <Node pos="r" depth="3" NCoef="0" IVar="-1" Cut="0.0000000000000000e+00" cType="1" res="6.3829731941223145e-01" rms="3.2876545190811157e-01" purity="8.2959777116775513e-01" nType="-99"/>
          </Node>
        </Node>
      </Node>
    </BinaryTree>
    <BinaryTree type="DecisionTree" boostWeight="1.0000000000000000e+00" itree="4">
      <Node pos="s" depth="0" NCoef="0" IVar="10" Cut="9.8706644773483276e-01" cType="1" res="-2.6087729260325432e-02" rms="2.3818948864936829e-01" purity="4.8847925662994385e-01" nType="0">
        <Node pos="l" depth="1" NCoef="0" IVar="1" Cut="1.5240387916564941e+00" cType="1" res="-1.2147945910692215e-01" rms="2.2803923487663269e-01" purity="1.1971113085746765e-01" nType="0">
          <Node pos="l" depth="2" NCoef="0" IVar="5" Cut="1.4532755315303802e-01" cType="1" res="-7.7230304479598999e-02" rms="2.1047721803188324e-01" purity="1.5569896996021271e-01" nType="0">
            <Node pos="l" depth="3" NCoef="0" IVar="-1" Cut="0.0000000000000000e+00" cType="1" res="2.3609681427478790e-01" rms="2.7839434146881104e-01" purity="3.3190026879310608e-01" nType="-99"/>
            <Node pos="r" depth="3" NCoef="0" IVar="12" Cut="1.5825662612915039e+00" cType="1" res="-1.0780761390924454e-01" rms="1.7940430343151093e-01" purity="1.2842693924903870e-01" nType="0">
              <Node pos="l" depth="4" NCoef="0" IVar="-1" Cut="0.0000000000000000e+00" cType="1" res="-2.1344704926013947e-01" rms="1.4345125854015350e-01" purity="1.7494560778141022e-01" nType="-99"/>
              <Node pos="r" depth="4" NCoef="0" IVar="-1" Cut="0.0000000000000000e+00" cType="1" res="-4.8984265327453613e-01" rms="2.3720988631248474e-01" purity="0.0000000000000000e+00" nType="-99"/>
            </Node>
          </Node>
          <Node pos="r" depth="2" NCoef="0" IVar="10" Cut="1.6101686656475067e-01" cType="1" res="-2.6867130398750305e-01" rms="2.2235324978828430e-01" purity="0.0000000000000000e+00" nType="0">
            <Node pos="l" depth="3" NCoef="0" IVar="-1" Cut="0.0000000000000000e+00" cType="1" res="-3.3603611588478088e-01" rms="1.2158822268247604e-01" purity="0.0000000000000000e+00" nType="-99"/>
            <Node pos="r" depth="3" NCoef="0" IVar="-1" Cut="0.0000000000000000e+00" cType="1" res="-5.7209444046020508e-01" rms="2.5322267413139343e-01" purity="0.0000000000000000e+00" nType="-99"/>
          </Node>
        </Node>
        <Node pos="r" depth="1" NCoef="0" IVar="11" Cut="5.9233981370925903e-01" cType="1" res="8.5413396358489990e-02" rms="1.9798222184181213e-01" purity="9.1952353715896606e-01" nType="0">
          <Node pos="l" depth="2" NCoef="0" IVar="0" Cut="1.4172807931900024e+00" cType="1" res="5.2974293939769268e-03" rms="1.9194835424423218e-01" purity="8.6441367864608765e-01" nType="0">
            <Node pos="l" depth="3" NCoef="0" IVar="-1" Cut="0.0000000000000000e+00" cType="1" res="-3.9483425021171570e-01" rms="3.4552484750747681e-01" purity="5.1058202981948853e-01" nType="-99"/>
            <Node pos="r" depth="3" NCoef="0" IVar="-1" Cut="0.0000000000000000e+00" cType="1" res="2.3493170738220215e-01" rms="3.5943284630775452e-02" purity="9.7061938047409058e-01" nType="-99"/>
          </Node>
          <Node pos="r" depth="2" NCoef="0" IVar="5" Cut="1.4270564317703247e+00" cType="1" res="1.6838400065898895e-01" rms="1.6763707995414734e-01" purity="9.7659713029861450e-01" nType="0">
            <Node pos="l" depth="3" NCoef="0" IVar="-1" Cut="0.0000000000000000e+00" cType="1" res="3.7093329429626465e-01" rms="1.2981674075126648e-01" purity="9.7659713029861450e-01" nType="-99"/>
            <Node pos="r" depth="3" NCoef="0" IVar="-1" Cut="0.0000000000000000e+00" cType="1" res="2.0307041704654694e-01" rms="1.3416691124439240e-01" purity="9.7659713029861450e-01" nType="-99"/>
          </Node>
        </Node>
      </Node>
    </BinaryTree>
    <BinaryTree type="DecisionTree" boostWeight="1.0000000000000000e+00" itree="5">
      <Node pos="s" depth="0" NCoef="0" IVar="4" Cut="2.2805972099304199e+00" cType="1" res="1.0086920112371445e-02" rms="2.8583884239196777e-01" purity="4.6766620874404907e-01" nType="0">
        <Node pos="l" depth="1" NCoef="0" IVar="1" Cut="1.7020777463912964e+00" cType="1" res="-6.1589024960994720e-02" rms="2.8502619266510010e-01" purity="2.6108008623123169e-01" nType="0">
          <Node pos="l" depth="2" NCoef="0" IVar="10" Cut="5.0856888294219971e-01" cType="1" res="-1.1757126450538635e-01" rms="2.5673222541809082e-01" purity="1.2655737996101379e-01" nType="0">
            <Node pos="l" depth="3" NCoef="0" IVar="4" Cut="2.5508245825767517e-01" cType="1" res="-3.4836754202842712e-02" rms="1.8275240063667297e-01" purity="3.3934067934751511e-02" nType="0">
              <Node pos="l" depth="4" NCoef="0" IVar="-1" Cut="0.0000000000000000e+00" cType="1" res="5.4987758398056030e-01" rms="3.6374726891517639e-01" purity="1.7853839695453644e-01" nType="-99"/>
              <Node pos="r" depth="4" NCoef="0" IVar="-1" Cut="0.0000000000000000e+00" cType="1" res="-2.8312879800796509e-01" rms="5.7130742818117142e-02" purity="0.0000000000000000e+00" nType="-99"/>
            </Node>
            <Node pos="r" depth="3" NCoef="0" IVar="1" Cut="1.3991029262542725e+00" cType="1" res="-2.1191763877868652e-01" rms="2.9373580217361450e-01" purity="2.3218044638633728e-01" nType="0">
              <Node pos="l" depth="4" NCoef="0" IVar="-1" Cut="0.0000000000000000e+00" cType="1" res="-6.0774618387222290e-01" rms="2.9401358962059021e-01" purity="0.0000000000000000e+00" nType="-99"/>
              <Node pos="r" depth="4" NCoef="0" IVar="-1" Cut="0.0000000000000000e+00" cType="1" res="-2.2037556767463684e-01" rms="2.3684839904308319e-01" purity="5.5103498697280884e-01" nType="-99"/>
            </Node>
          </Node>
          <Node pos="r" depth="2" NCoef="0" IVar="3" Cut="7.0072677612304688e+01" cType="1" res="1.1571714282035828e-01" rms="2.9736274480819702e-01" purity="6.8713843822479248e-01" nType="0">
            <Node pos="l" depth="3" NCoef="0" IVar="-1" Cut="0.0000000000000000e+00" cType="1" res="3.9628896117210388e-01" rms="2.9973766207695007e-01" purity="8.3243477344512939e-01" nType="-99"/>
            <Node pos="r" depth="3" NCoef="0" IVar="-1" Cut="0.0000000000000000e+00" cType="1" res="-1.8943727016448975e-01" rms="1.9610774517059326e-01" purity="3.6692017316818237e-01" nType="-99"/>
          </Node>
        </Node>
        <Node pos="r" depth="1" NCoef="0" IVar="7" Cut="8.0541954040527344e+01" cType="1" res="1.8475933372974396e-01" rms="1.9950978457927704e-01" purity="9.7111123800277710e-01" nType="0">
          <Node pos="l" depth="2" NCoef="0" IVar="-1" Cut="0.0000000000000000e+00" cType="1" res="3.0029514431953430e-01" rms="8.0627299845218658e-02" purity="1.0000000000000000e+00" nType="-99"/>
          <Node pos="r" depth="2" NCoef="0" IVar="-1" Cut="0.0000000000000000e+00" cType="1" res="4.4172596931457520e-01" rms="2.6383909583091736e-01" purity="9.1252958774566650e-01" nType="-99"/>
        </Node>
      </Node>
    </BinaryTree>
    <BinaryTree type="DecisionTree" boostWeight="1.0000000000000000e+00" itree="6">
      <Node pos="s" depth="0" NCoef="0" IVar="9" Cut="1.8793338909745216e-02" cType="1" res="1.1578767560422421e-02" rms="2.4757316708564758e-01" purity="4.5391058921813965e-01" nType="0">
        <Node pos="l" depth="1" NCoef="0" IVar="10" Cut="9.8184931278228760e-01" cType="1" res="-5.3849920630455017e-02" rms="2.3882041871547699e-01" purity="1.6260100901126862e-01" nType="0">
          <Node pos="l" depth="2" NCoef="0" IVar="5" Cut="1.1215416193008423e+00" cType="1" res="-2.2788928821682930e-02" rms="2.0559160411357880e-01" purity="1.3451234996318817e-01" nType="0">
            <Node pos="l" depth="3" NCoef="0" IVar="1" Cut="1.6470545530319214e+00" cType="1" res="-7.8380510210990906e-02" rms="1.2892822921276093e-01" purity="2.6449225842952728e-02" nType="0">
              <Node pos="l" depth="4" NCoef="0" IVar="-1" Cut="0.0000000000000000e+00" cType="1" res="-2.5234901905059814e-01" rms="9.0328522026538849e-02" purity="3.1764317303895950e-02" nType="-99"/>
              <Node pos="r" depth="4" NCoef="0" IVar="-1" Cut="0.0000000000000000e+00" cType="1" res="-4.3144351243972778e-01" rms="2.0928595960140228e-01" purity="0.0000000000000000e+00" nType="-99"/>
            </Node>
            <Node pos="r" depth="3" NCoef="0" IVar="6" Cut="4.4743921607732773e-03" cType="1" res="7.4222132563591003e-02" rms="2.6873174309730530e-01" purity="3.2308977842330933e-01" nType="0">
              <Node pos="l" depth="4" NCoef="0" IVar="-1" Cut="0.0000000000000000e+00" cType="1" res="4.5139729976654053e-01" rms="3.1163698434829712e-01" purity="7.2284644842147827e-01" nType="-99"/>
              <Node pos="r" depth="4" NCoef="0" IVar="-1" Cut="0.0000000000000000e+00" cType="1" res="-2.3598015308380127e-01" rms="9.8068386316299438e-02" purity="7.4820704758167267e-02" nType="-99"/>
            </Node>
          </Node>
          <Node pos="r" depth="2" NCoef="0" IVar="-1" Cut="0.0000000000000000e+00" cType="1" res="-4.7777327895164490e-01" rms="3.2616978883743286e-01" purity="3.6692017316818237e-01" nType="-99"/>
        </Node>
        <Node pos="r" depth="1" NCoef="0" IVar="4" Cut="3.1057419776916504e+00" cType="1" res="1.2141029536724091e-01" rms="2.2178779542446136e-01" purity="9.4291591644287109e-01" nType="0">
          <Node pos="l" depth="2" NCoef="0" IVar="-1" Cut="0.0000000000000000e+00" cType="1" res="3.6415472626686096e-01" rms="2.5951045751571655e-01" purity="8.9684015512466431e-01" nType="-99"/>
          <Node pos="r" depth="2" NCoef="0" IVar="-1" Cut="0.0000000000000000e+00" cType="1" res="1.7274619638919830e-01" rms="1.3613222539424896e-01" purity="9.7560441493988037e-01" nType="-99"/>
        </Node>
      </Node>
    </BinaryTree>
    <BinaryTree type="DecisionTree" boostWeight="1.0000000000000000e+00" itree="7">
      <Node pos="s" depth="0" NCoef="0" IVar="10" Cut="4.9043998122215271e-01" cType="1" res="2.9046637937426567e-02" rms="2.1323280036449432e-01" purity="4.2235326766967773e-01" nType="0">
        <Node pos="l" depth="1" NCoef="0" IVar="8" Cut="2.9668149352073669e-01" cType="1" res="-5.9912554919719696e-02" rms="8.3438038825988770e-02" purity="0.0000000000000000e+00" nType="0">
          <Node pos="l" depth="2" NCoef="0" IVar="9" Cut="1.0069547221064568e-02" cType="1" res="-9.2242211103439331e-02" rms="1.0697939246892929e-01" purity="0.0000000000000000e+00" nType="0">
            <Node pos="l" depth="3" NCoef="0" IVar="9" Cut="5.3335828706622124e-03" cType="1" res="-5.9003923088312149e-02" rms="7.3814980685710907e-02" purity="0.0000000000000000e+00" nType="0">
              <Node pos="l" depth="4" NCoef="0" IVar="-1" Cut="0.0000000000000000e+00" cType="1" res="-2.6010024547576904e-01" rms="1.7172573134303093e-02" purity="0.0000000000000000e+00" nType="-99"/>
              <Node pos="r" depth="4" NCoef="0" IVar="-1" Cut="0.0000000000000000e+00" cType="1" res="-3.0755385756492615e-01" rms="9.3480043113231659e-02" purity="0.0000000000000000e+00" nType="-99"/>
            </Node>
            <Node pos="r" depth="3" NCoef="0" IVar="-1" Cut="0.0000000000000000e+00" cType="1" res="-3.3935788273811340e-01" rms="1.2944391369819641e-01" purity="0.0000000000000000e+00" nType="-99"/>
          </Node>
          <Node pos="r" depth="2" NCoef="0" IVar="5" Cut="1.0023894309997559e+00" cType="1" res="-2.7582898736000061e-02" rms="1.9718255847692490e-02" purity="0.0000000000000000e+00" nType="0">
            <Node pos="l" depth="3" NCoef="0" IVar="0" Cut="1.2481606006622314e+00" cType="1" res="-2.0817620679736137e-02" rms="1.3027370907366276e-02" purity="0.0000000000000000e+00" nType="0">
              <Node pos="l" depth="4" NCoef="0" IVar="-1" Cut="0.0000000000000000e+00" cType="1" res="-2.5490140914916992e-01" rms="7.5398483313620090e-03" purity="0.0000000000000000e+00" nType="-99"/>
              <Node pos="r" depth="4" NCoef="0" IVar="-1" Cut="0.0000000000000000e+00" cType="1" res="-2.5925257802009583e-01" rms="1.5255027450621128e-02" purity="0.0000000000000000e+00" nType="-99"/>
            </Node>
            <Node pos="r" depth="3" NCoef="0" IVar="-1" Cut="0.0000000000000000e+00" cType="1" res="-2.6465812325477600e-01" rms="2.3422421887516975e-02" purity="0.0000000000000000e+00" nType="-99"/>
          </Node>
        </Node>
        <Node pos="r" depth="1" NCoef="0" IVar="10" Cut="7.5879782438278198e-01" cType="1" res="8.3378933370113373e-02" rms="2.4738799035549164e-01" purity="6.8030780553817749e-01" nType="0">
          <Node pos="l" depth="2" NCoef="0" IVar="1" Cut="1.2759329080581665e+00" cType="1" res="2.9511481523513794e-01" rms="4.1455039381980896e-01" purity="4.5294535160064697e-01" nType="0">
            <Node pos="l" depth="3" NCoef="0" IVar="-1" Cut="0.0000000000000000e+00" cType="1" res="1.0946677923202515e+00" rms="4.1401204466819763e-01" purity="5.3685671091079712e-01" nType="-99"/>
            <Node pos="r" depth="3" NCoef="0" IVar="-1" Cut="0.0000000000000000e+00" cType="1" res="4.2327609658241272e-01" rms="3.8065031170845032e-01" purity="3.6692017316818237e-01" nType="-99"/>
          </Node>
          <Node pos="r" depth="2" NCoef="0" IVar="9" Cut="1.2807697989046574e-02" cType="1" res="3.5899378359317780e-02" rms="1.5518054366111755e-01" purity="7.3129141330718994e-01" nType="0">
            <Node pos="l" depth="3" NCoef="0" IVar="-1" Cut="0.0000000000000000e+00" cType="1" res="-3.0251795053482056e-01" rms="8.4314815700054169e-02" purity="0.0000000000000000e+00" nType="-99"/>
            <Node pos="r" depth="3" NCoef="0" IVar="9" Cut="1.9290791824460030e-02" cType="1" res="6.2131743878126144e-02" rms="1.5835708379745483e-01" purity="9.1923004388809204e-01" nType="0">
              <Node pos="l" depth="4" NCoef="0" IVar="-1" Cut="0.0000000000000000e+00" cType="1" res="2.2061841189861298e-01" rms="2.4221836030483246e-01" purity="8.0225652456283569e-01" nType="-99"/>
              <Node pos="r" depth="4" NCoef="0" IVar="-1" Cut="0.0000000000000000e+00" cType="1" res="1.6779901087284088e-01" rms="1.1369039863348007e-01" purity="9.5276194810867310e-01" nType="-99"/>
            </Node>
          </Node>
        </Node>
      </Node>
    </BinaryTree>
    <BinaryTree type="DecisionTree" boostWeight="1.0000000000000000e+00" itree="8">
      <Node pos="s" depth="0" NCoef="0" IVar="8" Cut="1.8292513489723206e-01" cType="1" res="3.2534070312976837e-02" rms="2.6539587974548340e-01" purity="4.6242862939834595e-01" nType="0">
        <Node pos="l" depth="1" NCoef="0" IVar="-1" Cut="0.0000000000000000e+00" cType="1" res="1.0781100988388062e+00" rms="4.0373393893241882e-01" purity="8.2258927822113037e-01" nType="-99"/>
        <Node pos="r" depth="1" NCoef="0" IVar="12" Cut="-1.6477644443511963e+00" cType="1" res="-1.0136133059859276e-02" rms="2.0551627874374390e-01" purity="4.0207138657569885e-01" nType="0">
          <Node pos="l" depth="2" NCoef="0" IVar="4" Cut="3.3672624826431274e-01" cType="1" res="7.0266097784042358e-02" rms="2.7980476617813110e-01" purity="4.9838605523109436e-01" nType="0">
            <Node pos="l" depth="3" NCoef="0" IVar="-1" Cut="0.0000000000000000e+00" cType="1" res="4.5815229415893555e-01" rms="2.5558102130889893e-01" purity="6.3486844301223755e-01" nType="-99"/>
            <Node pos="r" depth="3" NCoef="0" IVar="0" Cut="1.1807904243469238e+00" cType="1" res="-1.2746244668960571e-02" rms="2.3780804872512817e-01" purity="4.5001456141471863e-01" nType="0">
              <Node pos="l" depth="4" NCoef="0" IVar="-1" Cut="0.0000000000000000e+00" cType="1" res="2.7189156413078308e-01" rms="1.4098508656024933e-01" purity="5.3685677051544189e-01" nType="-99"/>
              <Node pos="r" depth="4" NCoef="0" IVar="-1" Cut="0.0000000000000000e+00" cType="1" res="-3.6890316009521484e-01" rms="2.5718626379966736e-01" purity="3.8735574483871460e-01" nType="-99"/>
            </Node>
          </Node>
          <Node pos="r" depth="2" NCoef="0" IVar="4" Cut="1.7065826654434204e+00" cType="1" res="-4.0878649801015854e-02" rms="1.5822322666645050e-01" purity="3.6524456739425659e-01" nType="0">
            <Node pos="l" depth="3" NCoef="0" IVar="3" Cut="2.7161323547363281e+01" cType="1" res="-8.4520913660526276e-02" rms="1.8189312517642975e-01" purity="7.5909540057182312e-02" nType="0">
              <Node pos="l" depth="4" NCoef="0" IVar="-1" Cut="0.0000000000000000e+00" cType="1" res="-4.6381196379661560e-01" rms="2.9738691449165344e-01" purity="1.7853839695453644e-01" nType="-99"/>
              <Node pos="r" depth="4" NCoef="0" IVar="-1" Cut="0.0000000000000000e+00" cType="1" res="-3.7718102335929871e-01" rms="1.3252989947795868e-01" purity="5.8962803333997726e-02" nType="-99"/>
            </Node>
            <Node pos="r" depth="3" NCoef="0" IVar="1" Cut="1.4155471324920654e+00" cType="1" res="3.2670043408870697e-02" rms="5.3367678076028824e-02" purity="8.5285019874572754e-01" nType="0">
              <Node pos="l" depth="4" NCoef="0" IVar="-1" Cut="0.0000000000000000e+00" cType="1" res="2.7038222551345825e-01" rms="5.9871345758438110e-02" purity="8.5285019874572754e-01" nType="-99"/>
              <Node pos="r" depth="4" NCoef="0" IVar="-1" Cut="0.0000000000000000e+00" cType="1" res="1.2221996486186981e-01" rms="3.2314073294401169e-02" purity="8.5285019874572754e-01" nType="-99"/>
            </Node>
          </Node>
        </Node>
      </Node>
    </BinaryTree>
    <BinaryTree type="DecisionTree" boostWeight="1.0000000000000000e+00" itree="9">
      <Node pos="s" depth="0" NCoef="0" IVar="4" Cut="9.1040390729904175e-01" cType="1" res="1.0722381062805653e-02" rms="1.5960511565208435e-01" purity="4.9706682562828064e-01" nType="0">
        <Node pos="l" depth="1" NCoef="0" IVar="12" Cut="-1.7432376146316528e+00" cType="1" res="-5.1295921206474304e-02" rms="1.5388116240501404e-01" purity="5.4354716092348099e-02" nType="0">
          <Node pos="l" depth="2" NCoef="0" IVar="-1" Cut="0.0000000000000000e+00" cType="1" res="-4.5175760984420776e-01" rms="2.1871252357959747e-01" purity="0.0000000000000000e+00" nType="-99"/>
          <Node pos="r" depth="2" NCoef="0" IVar="11" Cut="8.8766545057296753e-01" cType="1" res="-1.7340393736958504e-02" rms="1.0842051357030869e-01" purity="6.8891666829586029e-02" nType="0">
            <Node pos="l" depth="3" NCoef="0" IVar="10" Cut="4.9034994840621948e-01" cType="1" res="-3.6321222782135010e-02" rms="9.0483248233795166e-02" purity="0.0000000000000000e+00" nType="0">
              <Node pos="l" depth="4" NCoef="0" IVar="-1" Cut="0.0000000000000000e+00" cType="1" res="-2.6738563179969788e-01" rms="2.9474982991814613e-02" purity="0.0000000000000000e+00" nType="-99"/>
              <Node pos="r" depth="4" NCoef="0" IVar="-1" Cut="0.0000000000000000e+00" cType="1" res="-4.0018200874328613e-01" rms="1.5276376903057098e-01" purity="0.0000000000000000e+00" nType="-99"/>
            </Node>
            <Node pos="r" depth="3" NCoef="0" IVar="-1" Cut="0.0000000000000000e+00" cType="1" res="2.7507227659225464e-01" rms="1.3743545114994049e-01" purity="3.6692017316818237e-01" nType="-99"/>
          </Node>
        </Node>
        <Node pos="r" depth="1" NCoef="0" IVar="1" Cut="1.1160931587219238e+00" cType="1" res="4.2486324906349182e-02" rms="1.5301610529422760e-01" purity="7.2381085157394409e-01" nType="0">
          <Node pos="l" depth="2" NCoef="0" IVar="-1" Cut="0.0000000000000000e+00" cType="1" res="3.2460293173789978e-01" rms="1.4348319172859192e-01" purity="7.5969296693801880e-01" nType="-99"/>
          <Node pos="r" depth="2" NCoef="0" IVar="6" Cut="5.2734035998582840e-03" cType="1" res="2.1701095625758171e-02" rms="1.4727553725242615e-01" purity="7.1576160192489624e-01" nType="0">
            <Node pos="l" depth="3" NCoef="0" IVar="10" Cut="9.8125869035720825e-01" cType="1" res="5.0528686493635178e-02" rms="1.4174680411815643e-01" purity="8.5053247213363647e-01" nType="0">
              <Node pos="l" depth="4" NCoef="0" IVar="-1" Cut="0.0000000000000000e+00" cType="1" res="3.2629764080047607e-01" rms="1.8278902769088745e-01" purity="5.2338981628417969e-01" nType="-99"/>
              <Node pos="r" depth="4" NCoef="0" IVar="-1" Cut="0.0000000000000000e+00" cType="1" res="1.4147788286209106e-01" rms="1.0177854448556900e-01" purity="9.7204726934432983e-01" nType="-99"/>
            </Node>
            <Node pos="r" depth="3" NCoef="0" IVar="11" Cut="3.3868956565856934e-01" cType="1" res="-5.2916333079338074e-02" rms="1.3456359505653381e-01" purity="3.6692017316818237e-01" nType="0">
              <Node pos="l" depth="4" NCoef="0" IVar="-1" Cut="0.0000000000000000e+00" cType="1" res="-3.9629405736923218e-01" rms="1.8578995764255524e-01" purity="1.7853839695453644e-01" nType="-99"/>
              <Node pos="r" depth="4" NCoef="0" IVar="-1" Cut="0.0000000000000000e+00" cType="1" res="-7.6662190258502960e-02" rms="6.0649130493402481e-02" purity="4.6506026387214661e-01" nType="-99"/>
            </Node>
          </Node>
        </Node>
      </Node>
    </BinaryTree>
    <BinaryTree type="DecisionTree" boostWeight="1.0000000000000000e+00" itree="10">
      <Node pos="s" depth="0" NCoef="0" IVar="5" Cut="9.4450533390045166e-02" cType="1" res="5.3817253559827805e-02" rms="2.1152748167514801e-01" purity="5.3035855293273926e-01" nType="0">
        <Node pos="l" depth="1" NCoef="0" IVar="-1" Cut="0.0000000000000000e+00" cType="1" res="9.3370741605758667e-01" rms="4.1068205237388611e-01" purity="5.1690655946731567e-01" nType="-99"/>
        <Node pos="r" depth="1" NCoef="0" IVar="7" Cut="1.6446182250976562e+01" cType="1" res="3.5159830003976822e-02" rms="1.7540076375007629e-01" purity="5.3129595518112183e-01" nType="0">
          <Node pos="l" depth="2" NCoef="0" IVar="-1" Cut="0.0000000000000000e+00" cType="1" res="4.8140117526054382e-01" rms="2.9994493722915649e-01" purity="7.7665990591049194e-01" nType="-99"/>
          <Node pos="r" depth="2" NCoef="0" IVar="10" Cut="9.4720274209976196e-01" cType="1" res="1.4451085589826107e-02" rms="1.4231018722057343e-01" purity="5.0962269306182861e-01" nType="0">
            <Node pos="l" depth="3" NCoef="0" IVar="7" Cut="1.2814944458007812e+02" cType="1" res="-3.9627052843570709e-02" rms="1.3536611199378967e-01" purity="6.6689699888229370e-02" nType="0">
              <Node pos="l" depth="4" NCoef="0" IVar="-1" Cut="0.0000000000000000e+00" cType="1" res="-3.6983290314674377e-01" rms="1.6518342494964600e-01" purity="6.6266089677810669e-02" nType="-99"/>
              <Node pos="r" depth="4" NCoef="0" IVar="-1" Cut="0.0000000000000000e+00" cType="1" res="-1.2203943915665150e-02" rms="9.7226150333881378e-02" purity="6.6903546452522278e-02" nType="-99"/>
            </Node>
            <Node pos="r" depth="3" NCoef="0" IVar="11" Cut="3.8300964236259460e-01" cType="1" res="5.7090844959020615e-02" rms="1.3284772634506226e-01" purity="8.5886836051940918e-01" nType="0">
              <Node pos="l" depth="4" NCoef="0" IVar="-1" Cut="0.0000000000000000e+00" cType="1" res="3.3145248889923096e-01" rms="1.8319022655487061e-01" purity="8.5727643966674805e-01" nType="-99"/>
              <Node pos="r" depth="4" NCoef="0" IVar="-1" Cut="0.0000000000000000e+00" cType="1" res="1.3306854665279388e-01" rms="6.4444407820701599e-02" purity="8.5987973213195801e-01" nType="-99"/>
            </Node>
          </Node>
        </Node>
      </Node>
    </BinaryTree>
    <BinaryTree type="DecisionTree" boostWeight="1.0000000000000000e+00" itree="11">
      <Node pos="s" depth="0" NCoef="0" IVar="0" Cut="2.2181892395019531e+00" cType="1" res="9.9582420662045479e-03" rms="2.0572724938392639e-01" purity="4.6351057291030884e-01" nType="0">
        <Node pos="l" depth="1" NCoef="0" IVar="10" Cut="9.9986666440963745e-01" cType="1" res="-1.6331527382135391e-02" rms="1.5929634869098663e-01" purity="4.2227748036384583e-01" nType="0">
          <Node pos="l" depth="2" NCoef="0" IVar="5" Cut="7.6849617063999176e-02" cType="1" res="-3.8319516927003860e-02" rms="1.4084662497043610e-01" purity="3.4037497639656067e-01" nType="0">
            <Node pos="l" depth="3" NCoef="0" IVar="-1" Cut="0.0000000000000000e+00" cType="1" res="-4.3661588430404663e-01" rms="2.3638071119785309e-01" purity="2.1104428172111511e-01" nType="-99"/>
            <Node pos="r" depth="3" NCoef="0" IVar="4" Cut="2.7617342472076416e+00" cType="1" res="-2.6869980618357658e-02" rms="1.2349354475736618e-01" purity="3.5012781620025635e-01" nType="0">
              <Node pos="l" depth="4" NCoef="0" IVar="-1" Cut="0.0000000000000000e+00" cType="1" res="-2.8653642535209656e-01" rms="1.3294014334678650e-01" purity="1.8059886991977692e-01" nType="-99"/>
              <Node pos="r" depth="4" NCoef="0" IVar="-1" Cut="0.0000000000000000e+00" cType="1" res="2.7079600095748901e-01" rms="3.8016434758901596e-02" purity="1.0000000000000000e+00" nType="-99"/>
            </Node>
          </Node>
          <Node pos="r" depth="2" NCoef="0" IVar="-1" Cut="0.0000000000000000e+00" cType="1" res="4.1299802064895630e-01" rms="1.9475632905960083e-01" purity="9.4561487436294556e-01" nType="-99"/>
        </Node>
        <Node pos="r" depth="1" NCoef="0" IVar="-1" Cut="0.0000000000000000e+00" cType="1" res="7.5707161426544189e-01" rms="3.6696270108222961e-01" purity="8.5886847972869873e-01" nType="-99"/>
      </Node>
    </BinaryTree>
    <BinaryTree type="DecisionTree" boostWeight="1.0000000000000000e+00" itree="12">
      <Node pos="s" depth="0" NCoef="0" IVar="0" Cut="1.3585329055786133e+00" cType="1" res="4.3182402849197388e-02" rms="2.2103656828403473e-01" purity="4.8114678263664246e-01" nType="0">
        <Node pos="l" depth="1" NCoef="0" IVar="10" Cut="9.6047031879425049e-01" cType="1" res="-1.4934767037630081e-02" rms="1.1036462336778641e-01" purity="2.9689621925354004e-01" nType="0">
          <Node pos="l" depth="2" NCoef="0" IVar="2" Cut="3.9810173034667969e+01" cType="1" res="-4.3566260486841202e-02" rms="9.7990863025188446e-02" purity="0.0000000000000000e+00" nType="0">
            <Node pos="l" depth="3" NCoef="0" IVar="-1" Cut="0.0000000000000000e+00" cType="1" res="-3.9821246266365051e-01" rms="1.7724008858203888e-01" purity="0.0000000000000000e+00" nType="-99"/>
            <Node pos="r" depth="3" NCoef="0" IVar="8" Cut="2.5019171833992004e-01" cType="1" res="-2.2765673696994781e-02" rms="4.5793943107128143e-02" purity="0.0000000000000000e+00" nType="0">
              <Node pos="l" depth="4" NCoef="0" IVar="-1" Cut="0.0000000000000000e+00" cType="1" res="-3.0578815937042236e-01" rms="8.0710418522357941e-02" purity="0.0000000000000000e+00" nType="-99"/>
              <Node pos="r" depth="4" NCoef="0" IVar="-1" Cut="0.0000000000000000e+00" cType="1" res="-2.6559984683990479e-01" rms="2.6035077869892120e-02" purity="0.0000000000000000e+00" nType="-99"/>
            </Node>
          </Node>
          <Node pos="r" depth="2" NCoef="0" IVar="5" Cut="1.0727074146270752e+00" cType="1" res="3.1331747770309448e-02" rms="1.1349526792764664e-01" purity="7.7665996551513672e-01" nType="0">
            <Node pos="l" depth="3" NCoef="0" IVar="-1" Cut="0.0000000000000000e+00" cType="1" res="2.7606621384620667e-01" rms="1.1545658111572266e-01" purity="6.9864249229431152e-01" nType="-99"/>
            <Node pos="r" depth="3" NCoef="0" IVar="-1" Cut="0.0000000000000000e+00" cType="1" res="-1.3751609623432159e-01" rms="8.2506932318210602e-02" purity="8.2703542709350586e-01" nType="-99"/>
          </Node>
        </Node>
        <Node pos="r" depth="1" NCoef="0" IVar="4" Cut="4.5779269933700562e-01" cType="1" res="9.9461130797863007e-02" rms="2.7916970849037170e-01" purity="6.5956890583038330e-01" nType="0">
          <Node pos="l" depth="2" NCoef="0" IVar="-1" Cut="0.0000000000000000e+00" cType="1" res="7.5243836641311646e-01" rms="4.2810624837875366e-01" purity="6.4801347255706787e-01" nType="-99"/>
          <Node pos="r" depth="2" NCoef="0" IVar="6" Cut="5.8960393071174622e-03" cType="1" res="2.4650420993566513e-02" rms="1.4754725992679596e-01" purity="6.6311627626419067e-01" nType="0">
            <Node pos="l" depth="3" NCoef="0" IVar="9" Cut="2.5054002180695534e-02" cType="1" res="-9.7187515348196030e-03" rms="9.1660946607589722e-02" purity="7.2284638881683350e-01" nType="0">
              <Node pos="l" depth="4" NCoef="0" IVar="-1" Cut="0.0000000000000000e+00" cType="1" res="-3.0930876731872559e-01" rms="1.2382379174232483e-01" purity="2.7144867181777954e-01" nType="-99"/>
              <Node pos="r" depth="4" NCoef="0" IVar="-1" Cut="0.0000000000000000e+00" cType="1" res="2.6893025636672974e-01" rms="3.3440914005041122e-02" purity="1.0000000000000000e+00" nType="-99"/>
            </Node>
            <Node pos="r" depth="3" NCoef="0" IVar="6" Cut="7.9622026532888412e-03" cType="1" res="8.6326830089092255e-02" rms="1.9959087669849396e-01" purity="5.5592894554138184e-01" nType="0">
              <Node pos="l" depth="4" NCoef="0" IVar="-1" Cut="0.0000000000000000e+00" cType="1" res="4.0824064612388611e-01" rms="2.2162197530269623e-01" purity="6.5892797708511353e-01" nType="-99"/>
              <Node pos="r" depth="4" NCoef="0" IVar="-1" Cut="0.0000000000000000e+00" cType="1" res="-1.3785888440907001e-03" rms="1.2516808509826660e-01" purity="4.6506023406982422e-01" nType="-99"/>
            </Node>
          </Node>
        </Node>
      </Node>
    </BinaryTree>
    <BinaryTree type="DecisionTree" boostWeight="1.0000000000000000e+00" itree="13">
      <Node pos="s" depth="0" NCoef="0" IVar="2" Cut="5.2340862274169922e+01" cType="1" res="2.1725721657276154e-02" rms="1.5466064214706421e-01" purity="5.3138768672943115e-01" nType="0">
        <Node pos="l" depth="1" NCoef="0" IVar="1" Cut="1.2843811511993408e+00" cType="1" res="7.1013718843460083e-02" rms="1.8910145759582520e-01" purity="7.2284644842147827e-01" nType="0">
          <Node pos="l" depth="2" NCoef="0" IVar="9" Cut="8.6120693013072014e-03" cType="1" res="1.8668970465660095e-01" rms="2.2407978773117065e-01" purity="7.3859286308288574e-01" nType="0">
            <Node pos="l" depth="3" NCoef="0" IVar="-1" Cut="0.0000000000000000e+00" cType="1" res="4.5557248592376709e-01" rms="2.2024916112422943e-01" purity="8.0225652456283569e-01" nType="-99"/>
            <Node pos="r" depth="3" NCoef="0" IVar="-1" Cut="0.0000000000000000e+00" cType="1" res="2.3000499606132507e-01" rms="1.5603318810462952e-01" purity="6.7600697278976440e-01" nType="-99"/>
          </Node>
          <Node pos="r" depth="2" NCoef="0" IVar="0" Cut="1.3689423799514771e+00" cType="1" res="-1.5668665291741490e-03" rms="1.1413794755935669e-01" purity="7.1296638250350952e-01" nType="0">
            <Node pos="l" depth="3" NCoef="0" IVar="-1" Cut="0.0000000000000000e+00" cType="1" res="-3.4513568878173828e-01" rms="1.6282798349857330e-01" purity="4.2266628146171570e-01" nType="-99"/>
            <Node pos="r" depth="3" NCoef="0" IVar="-1" Cut="0.0000000000000000e+00" cType="1" res="2.1638636291027069e-01" rms="6.7296847701072693e-02" purity="8.6076658964157104e-01" nType="-99"/>
          </Node>
        </Node>
        <Node pos="r" depth="1" NCoef="0" IVar="8" Cut="1.9177363812923431e-01" cType="1" res="-1.1729061603546143e-02" rms="1.1452344805002213e-01" purity="4.0143290162086487e-01" nType="0">
          <Node pos="l" depth="2" NCoef="0" IVar="-1" Cut="0.0000000000000000e+00" cType="1" res="-5.3431850671768188e-01" rms="2.5176659226417542e-01" purity="1.7853839695453644e-01" nType="-99"/>
          <Node pos="r" depth="2" NCoef="0" IVar="2" Cut="3.5929443359375000e+02" cType="1" res="3.3118755090981722e-03" rms="7.6369911432266235e-02" purity="4.2168065905570984e-01" nType="0">
            <Node pos="l" depth="3" NCoef="0" IVar="9" Cut="1.4159515500068665e-02" cType="1" res="1.1480172164738178e-02" rms="4.2418487370014191e-02" purity="4.6268036961555481e-01" nType="0">
              <Node pos="l" depth="4" NCoef="0" IVar="-1" Cut="0.0000000000000000e+00" cType="1" res="-2.6633220911026001e-01" rms="2.4404831230640411e-02" purity="0.0000000000000000e+00" nType="-99"/>
              <Node pos="r" depth="4" NCoef="0" IVar="-1" Cut="0.0000000000000000e+00" cType="1" res="2.5039225816726685e-01" rms="4.3337691575288773e-02" purity="9.3776863813400269e-01" nType="-99"/>
            </Node>
            <Node pos="r" depth="3" NCoef="0" IVar="-1" Cut="0.0000000000000000e+00" cType="1" res="-5.8277183771133423e-01" rms="1.9891703128814697e-01" purity="0.0000000000000000e+00" nType="-99"/>
          </Node>
        </Node>
      </Node>
    </BinaryTree>
    <BinaryTree type="DecisionTree" boostWeight="1.0000000000000000e+00" itree="14">
      <Node pos="s" depth="0" NCoef="0" IVar="6" Cut="6.7993942648172379e-03" cType="1" res="1.0872950777411461e-02" rms="1.3308215141296387e-01" purity="5.7921338081359863e-01" nType="0">
        <Node pos="l" depth="1" NCoef="0" IVar="6" Cut="5.6563578546047211e-03" cType="1" res="2.4599352851510048e-02" rms="1.3047224283218384e-01" purity="7.4802058935165405e-01" nType="0">
          <Node pos="l" depth="2" NCoef="0" IVar="1" Cut="1.2188919782638550e+00" cType="1" res="1.2970149517059326e-02" rms="8.3980664610862732e-02" purity="7.6313310861587524e-01" nType="0">
            <Node pos="l" depth="3" NCoef="0" IVar="9" Cut="7.0825936272740364e-03" cType="1" res="5.5323407053947449e-02" rms="1.0196770727634430e-01" purity="7.9896503686904907e-01" nType="0">
              <Node pos="l" depth="4" NCoef="0" IVar="-1" Cut="0.0000000000000000e+00" cType="1" res="3.6559906601905823e-01" rms="1.6231481730937958e-01" purity="4.8675912618637085e-01" nType="-99"/>
              <Node pos="r" depth="4" NCoef="0" IVar="-1" Cut="0.0000000000000000e+00" cType="1" res="2.2510373592376709e-01" rms="4.3567288666963577e-02" purity="9.3776863813400269e-01" nType="-99"/>
            </Node>
            <Node pos="r" depth="3" NCoef="0" IVar="5" Cut="1.1599960327148438e+00" cType="1" res="-5.9426453663036227e-04" rms="7.2270825505256653e-02" purity="7.5165724754333496e-01" nType="0">
              <Node pos="l" depth="4" NCoef="0" IVar="-1" Cut="0.0000000000000000e+00" cType="1" res="-2.1943591535091400e-01" rms="1.1963909864425659e-01" purity="3.1204527616500854e-01" nType="-99"/>
              <Node pos="r" depth="4" NCoef="0" IVar="-1" Cut="0.0000000000000000e+00" cType="1" res="2.4966974556446075e-01" rms="2.4484826251864433e-02" purity="9.4687086343765259e-01" nType="-99"/>
            </Node>
          </Node>
          <Node pos="r" depth="2" NCoef="0" IVar="-1" Cut="0.0000000000000000e+00" cType="1" res="6.3638573884963989e-01" rms="2.8823494911193848e-01" purity="6.3486844301223755e-01" nType="-99"/>
        </Node>
        <Node pos="r" depth="1" NCoef="0" IVar="1" Cut="1.6062562465667725e+00" cType="1" res="-2.3260679095983505e-02" rms="1.3337059319019318e-01" purity="1.5943823754787445e-01" nType="0">
          <Node pos="l" depth="2" NCoef="0" IVar="8" Cut="2.3233945667743683e-01" cType="1" res="-2.4037053808569908e-03" rms="8.7461620569229126e-02" purity="1.9165839254856110e-01" nType="0">
            <Node pos="l" depth="3" NCoef="0" IVar="-1" Cut="0.0000000000000000e+00" cType="1" res="1.7464794218540192e-01" rms="1.3472324609756470e-01" purity="4.8675912618637085e-01" nType="-99"/>
            <Node pos="r" depth="3" NCoef="0" IVar="3" Cut="7.0952285766601562e+01" cType="1" res="-1.7217170447111130e-02" rms="6.2935106456279755e-02" purity="1.1931993812322617e-01" nType="0">
              <Node pos="l" depth="4" NCoef="0" IVar="-1" Cut="0.0000000000000000e+00" cType="1" res="-3.2931944727897644e-01" rms="1.1616117507219315e-01" purity="1.6191275417804718e-01" nType="-99"/>
              <Node pos="r" depth="4" NCoef="0" IVar="-1" Cut="0.0000000000000000e+00" cType="1" res="-1.8382374942302704e-01" rms="6.9500533863902092e-03" purity="1.0545007139444351e-01" nType="-99"/>
            </Node>
          </Node>
          <Node pos="r" depth="2" NCoef="0" IVar="-1" Cut="0.0000000000000000e+00" cType="1" res="-5.7149392366409302e-01" rms="2.3484218120574951e-01" purity="0.0000000000000000e+00" nType="-99"/>
        </Node>
      </Node>
    </BinaryTree>
    <BinaryTree type="DecisionTree" boostWeight="1.0000000000000000e+00" itree="15">
      <Node pos="s" depth="0" NCoef="0" IVar="6" Cut="6.4156693406403065e-04" cType="1" res="3.1100489199161530e-02" rms="2.0845866203308105e-01" purity="4.9971231818199158e-01" nType="0">
        <Node pos="l" depth="1" NCoef="0" IVar="-1" Cut="0.0000000000000000e+00" cType="1" res="1.0777695178985596e+00" rms="4.4175636768341064e-01" purity="5.7219088077545166e-01" nType="-99"/>
        <Node pos="r" depth="1" NCoef="0" IVar="1" Cut="1.7616680860519409e+00" cType="1" res="1.5034314244985580e-02" rms="1.6406466066837311e-01" purity="4.9333578348159790e-01" nType="0">
          <Node pos="l" depth="2" NCoef="0" IVar="5" Cut="1.3227549195289612e-01" cType="1" res="-4.7306804917752743e-03" rms="1.0157781094312668e-01" purity="4.4794428348541260e-01" nType="0">
            <Node pos="l" depth="3" NCoef="0" IVar="-1" Cut="0.0000000000000000e+00" cType="1" res="2.2346366941928864e-01" rms="1.1284650117158890e-01" purity="4.9134421348571777e-01" nType="-99"/>
            <Node pos="r" depth="3" NCoef="0" IVar="2" Cut="1.2691638946533203e+01" cType="1" res="-1.5063821338117123e-02" rms="9.5584541559219360e-02" purity="4.4144558906555176e-01" nType="0">
              <Node pos="l" depth="4" NCoef="0" IVar="-1" Cut="0.0000000000000000e+00" cType="1" res="-4.9842935800552368e-01" rms="2.1075715124607086e-01" purity="3.6692017316818237e-01" nType="-99"/>
              <Node pos="r" depth="4" NCoef="0" IVar="-1" Cut="0.0000000000000000e+00" cType="1" res="-8.7772697210311890e-02" rms="7.4402891099452972e-02" purity="4.4794431328773499e-01" nType="-99"/>
            </Node>
          </Node>
          <Node pos="r" depth="2" NCoef="0" IVar="8" Cut="2.3501382768154144e-01" cType="1" res="8.7917581200599670e-02" rms="2.8526127338409424e-01" purity="6.6071647405624390e-01" nType="0">
            <Node pos="l" depth="3" NCoef="0" IVar="-1" Cut="0.0000000000000000e+00" cType="1" res="9.0333396196365356e-01" rms="4.1991555690765381e-01" purity="6.8488293886184692e-01" nType="-99"/>
            <Node pos="r" depth="3" NCoef="0" IVar="0" Cut="1.4995987415313721e+00" cType="1" res="1.3310816138982773e-03" rms="9.8493553698062897e-02" purity="6.4801347255706787e-01" nType="0">
              <Node pos="l" depth="4" NCoef="0" IVar="-1" Cut="0.0000000000000000e+00" cType="1" res="1.9218474626541138e-01" rms="5.0821073353290558e-02" purity="6.0715687274932861e-01" nType="-99"/>
              <Node pos="r" depth="4" NCoef="0" IVar="-1" Cut="0.0000000000000000e+00" cType="1" res="-5.6756156682968140e-01" rms="1.2102483212947845e-01" purity="6.8488293886184692e-01" nType="-99"/>
            </Node>
          </Node>
        </Node>
      </Node>
    </BinaryTree>
    <BinaryTree type="DecisionTree" boostWeight="1.0000000000000000e+00" itree="16">
      <Node pos="s" depth="0" NCoef="0" IVar="8" Cut="1.8406015634536743e-01" cType="1" res="-1.0680513456463814e-02" rms="1.1408785730600357e-01" purity="4.8300313949584961e-01" nType="0">
        <Node pos="l" depth="1" NCoef="0" IVar="-1" Cut="0.0000000000000000e+00" cType="1" res="-5.9808266162872314e-01" rms="2.3954942822456360e-01" purity="5.8176332712173462e-01" nType="-99"/>
        <Node pos="r" depth="1" NCoef="0" IVar="5" Cut="1.5444430112838745e+00" cType="1" res="-2.7986040804535151e-03" rms="8.8508605957031250e-02" purity="4.7296679019927979e-01" nType="0">
          <Node pos="l" depth="2" NCoef="0" IVar="1" Cut="1.8260697126388550e+00" cType="1" res="-1.8260901793837547e-02" rms="8.1406243145465851e-02" purity="2.3692609369754791e-01" nType="0">
            <Node pos="l" depth="3" NCoef="0" IVar="13" Cut="-1.8311303853988647e+00" cType="1" res="-1.2448458932340145e-02" rms="5.9872377663850784e-02" purity="2.2693559527397156e-01" nType="0">
              <Node pos="l" depth="4" NCoef="0" IVar="-1" Cut="0.0000000000000000e+00" cType="1" res="-2.9690283536911011e-01" rms="9.6579387784004211e-02" purity="1.0387513786554337e-01" nType="-99"/>
              <Node pos="r" depth="4" NCoef="0" IVar="-1" Cut="0.0000000000000000e+00" cType="1" res="-6.7947208881378174e-02" rms="4.5685321092605591e-02" purity="2.5179386138916016e-01" nType="-99"/>
            </Node>
            <Node pos="r" depth="3" NCoef="0" IVar="-1" Cut="0.0000000000000000e+00" cType="1" res="-2.8690493106842041e-01" rms="1.7937068641185760e-01" purity="3.3190026879310608e-01" nType="-99"/>
          </Node>
          <Node pos="r" depth="2" NCoef="0" IVar="10" Cut="8.8654005527496338e-01" cType="1" res="2.2843878716230392e-02" rms="9.3707427382469177e-02" purity="8.6441367864608765e-01" nType="0">
            <Node pos="l" depth="3" NCoef="0" IVar="-1" Cut="0.0000000000000000e+00" cType="1" res="3.4596827626228333e-01" rms="1.8556968867778778e-01" purity="4.4521337747573853e-01" nType="-99"/>
            <Node pos="r" depth="3" NCoef="0" IVar="12" Cut="-1.3575515747070312e+00" cType="1" res="7.5318543240427971e-03" rms="4.4202838093042374e-02" purity="9.5426452159881592e-01" nType="0">
              <Node pos="l" depth="4" NCoef="0" IVar="-1" Cut="0.0000000000000000e+00" cType="1" res="2.6672127842903137e-01" rms="2.9176734387874603e-02" purity="1.0000000000000000e+00" nType="-99"/>
              <Node pos="r" depth="4" NCoef="0" IVar="-1" Cut="0.0000000000000000e+00" cType="1" res="-1.7229342460632324e-01" rms="5.3485911339521408e-02" purity="9.0041273832321167e-01" nType="-99"/>
            </Node>
          </Node>
        </Node>
      </Node>
    </BinaryTree>
    <BinaryTree type="DecisionTree" boostWeight="1.0000000000000000e+00" itree="17">
      <Node pos="s" depth="0" NCoef="0" IVar="1" Cut="1.1161084175109863e+00" cType="1" res="1.8047570483759046e-04" rms="1.3901160657405853e-01" purity="5.2124315500259399e-01" nType="0">
        <Node pos="l" depth="1" NCoef="0" IVar="7" Cut="8.4374259948730469e+01" cType="1" res="5.2761785686016083e-02" rms="1.0027223080396652e-01" purity="5.5709314346313477e-01" nType="0">
          <Node pos="l" depth="2" NCoef="0" IVar="-1" Cut="0.0000000000000000e+00" cType="1" res="2.9328694939613342e-01" rms="9.7821794450283051e-02" purity="9.0266007184982300e-01" nType="-99"/>
          <Node pos="r" depth="2" NCoef="0" IVar="6" Cut="6.4908023923635483e-03" cType="1" res="-1.8701454624533653e-02" rms="4.3990656733512878e-02" purity="7.8185133635997772e-02" nType="0">
            <Node pos="l" depth="3" NCoef="0" IVar="-1" Cut="0.0000000000000000e+00" cType="1" res="-2.8812944889068604e-01" rms="5.8112762868404388e-02" purity="0.0000000000000000e+00" nType="-99"/>
            <Node pos="r" depth="3" NCoef="0" IVar="-1" Cut="0.0000000000000000e+00" cType="1" res="-2.2557814419269562e-01" rms="6.2250308692455292e-03" purity="1.5470942854881287e-01" nType="-99"/>
          </Node>
        </Node>
        <Node pos="r" depth="1" NCoef="0" IVar="1" Cut="1.2299754619598389e+00" cType="1" res="-1.6188561916351318e-02" rms="1.4519408345222473e-01" purity="5.1008272171020508e-01" nType="0">
          <Node pos="l" depth="2" NCoef="0" IVar="-1" Cut="0.0000000000000000e+00" cType="1" res="-6.8736690282821655e-01" rms="2.3962113261222839e-01" purity="8.1866383552551270e-02" nType="-99"/>
          <Node pos="r" depth="2" NCoef="0" IVar="1" Cut="1.2843464612960815e+00" cType="1" res="-3.3432929776608944e-03" rms="1.2076655030250549e-01" purity="5.7104039192199707e-01" nType="0">
            <Node pos="l" depth="3" NCoef="0" IVar="-1" Cut="0.0000000000000000e+00" cType="1" res="2.7104035019874573e-01" rms="1.2884595990180969e-01" purity="6.3486844301223755e-01" nType="-99"/>
            <Node pos="r" depth="3" NCoef="0" IVar="0" Cut="1.6398949623107910e+00" cType="1" res="-1.3569564558565617e-02" rms="1.1507108062505722e-01" purity="5.6459009647369385e-01" nType="0">
              <Node pos="l" depth="4" NCoef="0" IVar="-1" Cut="0.0000000000000000e+00" cType="1" res="-3.9074218273162842e-01" rms="1.2991668283939362e-01" purity="4.3866127729415894e-01" nType="-99"/>
              <Node pos="r" depth="4" NCoef="0" IVar="-1" Cut="0.0000000000000000e+00" cType="1" res="1.6034249961376190e-01" rms="8.1845812499523163e-02" purity="7.4212932586669922e-01" nType="-99"/>
            </Node>
          </Node>
        </Node>
      </Node>
    </BinaryTree>
    <BinaryTree type="DecisionTree" boostWeight="1.0000000000000000e+00" itree="18">
      <Node pos="s" depth="0" NCoef="0" IVar="12" Cut="-2.1690530776977539e+00" cType="1" res="1.0666889138519764e-02" rms="1.4206936955451965e-01" purity="4.8114678263664246e-01" nType="0">
        <Node pos="l" depth="1" NCoef="0" IVar="-1" Cut="0.0000000000000000e+00" cType="1" res="3.3759450912475586e-01" rms="2.2368386387825012e-01" purity="6.9864249229431152e-01" nType="-99"/>
        <Node pos="r" depth="1" NCoef="0" IVar="1" Cut="1.9096904993057251e+00" cType="1" res="6.8843970075249672e-04" rms="1.2828172743320465e-01" purity="4.6381968259811401e-01" nType="0">
          <Node pos="l" depth="2" NCoef="0" IVar="7" Cut="5.1705383300781250e+01" cType="1" res="7.9901162534952164e-03" rms="1.0932894796133041e-01" purity="4.7163036465644836e-01" nType="0">
            <Node pos="l" depth="3" NCoef="0" IVar="7" Cut="3.6065856933593750e+01" cType="1" res="3.6377541720867157e-02" rms="1.1440343409776688e-01" purity="7.8699928522109985e-01" nType="0">
              <Node pos="l" depth="4" NCoef="0" IVar="-1" Cut="0.0000000000000000e+00" cType="1" res="1.5610146522521973e-01" rms="3.2196275889873505e-02" purity="8.0225652456283569e-01" nType="-99"/>
              <Node pos="r" depth="4" NCoef="0" IVar="-1" Cut="0.0000000000000000e+00" cType="1" res="3.6207398772239685e-01" rms="2.2629341483116150e-01" purity="7.2284644842147827e-01" nType="-99"/>
            </Node>
            <Node pos="r" depth="3" NCoef="0" IVar="8" Cut="2.0377896726131439e-01" cType="1" res="-1.2947947718203068e-02" rms="1.0041236132383347e-01" purity="2.3901985585689545e-01" nType="0">
              <Node pos="l" depth="4" NCoef="0" IVar="-1" Cut="0.0000000000000000e+00" cType="1" res="-4.3918296694755554e-01" rms="2.1053668856620789e-01" purity="2.9033473134040833e-01" nType="-99"/>
              <Node pos="r" depth="4" NCoef="0" IVar="-1" Cut="0.0000000000000000e+00" cType="1" res="-5.3378451615571976e-02" rms="6.9116689264774323e-02" purity="2.3218044638633728e-01" nType="-99"/>
            </Node>
          </Node>
          <Node pos="r" depth="2" NCoef="0" IVar="-1" Cut="0.0000000000000000e+00" cType="1" res="-9.8032391071319580e-01" rms="2.7641889452934265e-01" purity="3.3190026879310608e-01" nType="-99"/>
        </Node>
      </Node>
    </BinaryTree>
    <BinaryTree type="DecisionTree" boostWeight="1.0000000000000000e+00" itree="19">
      <Node pos="s" depth="0" NCoef="0" IVar="1" Cut="1.7861816883087158e+00" cType="1" res="1.6673760488629341e-02" rms="7.6735444366931915e-02" purity="5.2023983001708984e-01" nType="0">
        <Node pos="l" depth="1" NCoef="0" IVar="10" Cut="9.4721162319183350e-01" cType="1" res="7.2944797575473785e-03" rms="5.4981075227260590e-02" purity="4.6358409523963928e-01" nType="0">
          <Node pos="l" depth="2" NCoef="0" IVar="4" Cut="3.7927022576332092e-01" cType="1" res="-1.4420630410313606e-02" rms="4.4475384056568146e-02" purity="2.2511225193738937e-02" nType="0">
            <Node pos="l" depth="3" NCoef="0" IVar="-1" Cut="0.0000000000000000e+00" cType="1" res="-3.0517178773880005e-01" rms="8.0175757408142090e-02" purity="0.0000000000000000e+00" nType="-99"/>
            <Node pos="r" depth="3" NCoef="0" IVar="6" Cut="2.1912856027483940e-03" cType="1" res="-4.0214010514318943e-03" rms="1.2721064500510693e-02" purity="2.9351381585001945e-02" nType="0">
              <Node pos="l" depth="4" NCoef="0" IVar="-1" Cut="0.0000000000000000e+00" cType="1" res="-2.6301312446594238e-01" rms="2.1761391311883926e-02" purity="0.0000000000000000e+00" nType="-99"/>
              <Node pos="r" depth="4" NCoef="0" IVar="-1" Cut="0.0000000000000000e+00" cType="1" res="-1.1409384012222290e-01" rms="7.1620307862758636e-03" purity="3.7201233208179474e-02" nType="-99"/>
            </Node>
          </Node>
          <Node pos="r" depth="2" NCoef="0" IVar="8" Cut="2.1743439137935638e-01" cType="1" res="2.8184795752167702e-02" rms="5.6018304079771042e-02" purity="8.8790398836135864e-01" nType="0">
            <Node pos="l" depth="3" NCoef="0" IVar="-1" Cut="0.0000000000000000e+00" cType="1" res="2.6798546314239502e-01" rms="6.2212247401475906e-02" purity="9.5426452159881592e-01" nType="-99"/>
            <Node pos="r" depth="3" NCoef="0" IVar="7" Cut="3.2927799224853516e+01" cType="1" res="1.4154188334941864e-02" rms="4.6272203326225281e-02" purity="8.6306864023208618e-01" nType="0">
              <Node pos="l" depth="4" NCoef="0" IVar="-1" Cut="0.0000000000000000e+00" cType="1" res="2.3257216811180115e-01" rms="5.3743571043014526e-02" purity="9.7835838794708252e-01" nType="-99"/>
              <Node pos="r" depth="4" NCoef="0" IVar="-1" Cut="0.0000000000000000e+00" cType="1" res="3.1983211636543274e-02" rms="3.5056442022323608e-02" purity="7.8765463829040527e-01" nType="-99"/>
            </Node>
          </Node>
        </Node>
        <Node pos="r" depth="1" NCoef="0" IVar="4" Cut="5.1781946420669556e-01" cType="1" res="5.7353757321834564e-02" rms="1.2759242951869965e-01" purity="7.6596796512603760e-01" nType="0">
          <Node pos="l" depth="2" NCoef="0" IVar="-1" Cut="0.0000000000000000e+00" cType="1" res="3.7298005819320679e-01" rms="1.9020238518714905e-01" purity="6.0715687274932861e-01" nType="-99"/>
          <Node pos="r" depth="2" NCoef="0" IVar="-1" Cut="0.0000000000000000e+00" cType="1" res="1.8609516322612762e-01" rms="4.9557492136955261e-02" purity="8.3913046121597290e-01" nType="-99"/>
        </Node>
      </Node>
    </BinaryTree>
    <BinaryTree type="DecisionTree" boostWeight="1.0000000000000000e+00" itree="20">
      <Node pos="s" depth="0" NCoef="0" IVar="4" Cut="1.9979929924011230e+00" cType="1" res="-2.3346584930550307e-04" rms="9.3621298670768738e-02" purity="5.1295042037963867e-01" nType="0">
        <Node pos="l" depth="1" NCoef="0" IVar="8" Cut="3.9285114407539368e-01" cType="1" res="-1.2090656906366348e-02" rms="8.5804499685764313e-02" purity="2.8912776708602905e-01" nType="0">
          <Node pos="l" depth="2" NCoef="0" IVar="7" Cut="1.4531811523437500e+02" cType="1" res="5.0019156187772751e-03" rms="4.1709758341312408e-02" purity="3.6970651149749756e-01" nType="0">
            <Node pos="l" depth="3" NCoef="0" IVar="3" Cut="7.9130790710449219e+01" cType="1" res="1.8129905685782433e-02" rms="4.4847432523965836e-02" purity="6.6980659961700439e-01" nType="0">
              <Node pos="l" depth="4" NCoef="0" IVar="-1" Cut="0.0000000000000000e+00" cType="1" res="1.0812260210514069e-01" rms="2.6779318228363991e-02" purity="7.6246911287307739e-01" nType="-99"/>
              <Node pos="r" depth="4" NCoef="0" IVar="-1" Cut="0.0000000000000000e+00" cType="1" res="2.8449979424476624e-01" rms="6.8160049617290497e-02" purity="3.8735574483871460e-01" nType="-99"/>
            </Node>
            <Node pos="r" depth="3" NCoef="0" IVar="8" Cut="2.1349070966243744e-01" cType="1" res="-1.1171029880642891e-02" rms="3.0516235157847404e-02" purity="0.0000000000000000e+00" nType="0">
              <Node pos="l" depth="4" NCoef="0" IVar="-1" Cut="0.0000000000000000e+00" cType="1" res="-2.7949425578117371e-01" rms="4.8671521246433258e-02" purity="0.0000000000000000e+00" nType="-99"/>
              <Node pos="r" depth="4" NCoef="0" IVar="-1" Cut="0.0000000000000000e+00" cType="1" res="-2.5259456038475037e-01" rms="3.9516147226095200e-03" purity="0.0000000000000000e+00" nType="-99"/>
            </Node>
          </Node>
          <Node pos="r" depth="2" NCoef="0" IVar="5" Cut="1.1780714988708496e+00" cType="1" res="-3.2766107469797134e-02" rms="1.1568430811166763e-01" purity="1.9165839254856110e-01" nType="0">
            <Node pos="l" depth="3" NCoef="0" IVar="3" Cut="4.7375427246093750e+01" cType="1" res="-1.0570907965302467e-02" rms="3.1482387334108353e-02" purity="1.3472948968410492e-01" nType="0">
              <Node pos="l" depth="4" NCoef="0" IVar="-1" Cut="0.0000000000000000e+00" cType="1" res="-2.5418323278427124e-01" rms="5.6214973330497742e-02" purity="1.8820087611675262e-01" nType="-99"/>
              <Node pos="r" depth="4" NCoef="0" IVar="-1" Cut="0.0000000000000000e+00" cType="1" res="-2.4402904510498047e-01" rms="1.1935140006244183e-02" purity="1.1797066032886505e-01" nType="-99"/>
            </Node>
            <Node pos="r" depth="3" NCoef="0" IVar="-1" Cut="0.0000000000000000e+00" cType="1" res="-4.2277285456657410e-01" rms="1.9926412403583527e-01" purity="3.3190026879310608e-01" nType="-99"/>
          </Node>
        </Node>
        <Node pos="r" depth="1" NCoef="0" IVar="9" Cut="4.2837716639041901e-02" cType="1" res="2.3784046992659569e-02" rms="1.0365448147058487e-01" purity="9.6631777286529541e-01" nType="0">
          <Node pos="l" depth="2" NCoef="0" IVar="-1" Cut="0.0000000000000000e+00" cType="1" res="4.3519967794418335e-01" rms="1.6989848017692566e-01" purity="9.1252958774566650e-01" nType="-99"/>
          <Node pos="r" depth="2" NCoef="0" IVar="11" Cut="5.2512216567993164e-01" cType="1" res="4.1764830239117146e-03" rms="4.5325160026550293e-02" purity="9.8815995454788208e-01" nType="0">
            <Node pos="l" depth="3" NCoef="0" IVar="-1" Cut="0.0000000000000000e+00" cType="1" res="-1.1876767873764038e-01" rms="6.0318227857351303e-02" purity="9.7659713029861450e-01" nType="-99"/>
            <Node pos="r" depth="3" NCoef="0" IVar="-1" Cut="0.0000000000000000e+00" cType="1" res="2.5866726040840149e-01" rms="1.6389947384595871e-02" purity="1.0000000000000000e+00" nType="-99"/>
          </Node>
        </Node>
      </Node>
    </BinaryTree>
    <BinaryTree type="DecisionTree" boostWeight="1.0000000000000000e+00" itree="21">
      <Node pos="s" depth="0" NCoef="0" IVar="1" Cut="1.8321703672409058e+00" cType="1" res="-5.3523899987339973e-03" rms="8.6771383881568909e-02" purity="4.9057403206825256e-01" nType="0">
        <Node pos="l" depth="1" NCoef="0" IVar="8" Cut="1.8294575810432434e-01" cType="1" res="-4.6867024502716959e-04" rms="6.7504338920116425e-02" purity="4.9981868267059326e-01" nType="0">
          <Node pos="l" depth="2" NCoef="0" IVar="-1" Cut="0.0000000000000000e+00" cType="1" res="-3.7532246112823486e-01" rms="1.6304434835910797e-01" purity="5.1058202981948853e-01" nType="-99"/>
          <Node pos="r" depth="2" NCoef="0" IVar="10" Cut="9.4712877273559570e-01" cType="1" res="4.3978141620755196e-03" rms="5.2717719227075577e-02" purity="4.9914708733558655e-01" nType="0">
            <Node pos="l" depth="3" NCoef="0" IVar="4" Cut="1.5230715274810791e+00" cType="1" res="-8.4105329588055611e-03" rms="4.3347630649805069e-02" purity="7.0760764181613922e-02" nType="0">
              <Node pos="l" depth="4" NCoef="0" IVar="-1" Cut="0.0000000000000000e+00" cType="1" res="-1.3135366141796112e-01" rms="1.6486711800098419e-02" purity="8.2513891160488129e-02" nType="-99"/>
              <Node pos="r" depth="4" NCoef="0" IVar="-1" Cut="0.0000000000000000e+00" cType="1" res="-3.6325934529304504e-01" rms="1.0249210894107819e-01" purity="0.0000000000000000e+00" nType="-99"/>
            </Node>
            <Node pos="r" depth="3" NCoef="0" IVar="10" Cut="9.8436653614044189e-01" cType="1" res="1.4888209290802479e-02" rms="5.7201273739337921e-02" purity="8.5000747442245483e-01" nType="0">
              <Node pos="l" depth="4" NCoef="0" IVar="-1" Cut="0.0000000000000000e+00" cType="1" res="2.3700498044490814e-01" rms="6.9550842046737671e-02" purity="7.5264626741409302e-01" nType="-99"/>
              <Node pos="r" depth="4" NCoef="0" IVar="-1" Cut="0.0000000000000000e+00" cType="1" res="9.7567699849605560e-02" rms="5.1685005426406860e-02" purity="8.7133181095123291e-01" nType="-99"/>
            </Node>
          </Node>
        </Node>
        <Node pos="r" depth="1" NCoef="0" IVar="-1" Cut="0.0000000000000000e+00" cType="1" res="-5.9000462293624878e-01" rms="1.8585823476314545e-01" purity="3.9845162630081177e-01" nType="-99"/>
      </Node>
    </BinaryTree>
    <BinaryTree type="DecisionTree" boostWeight="1.0000000000000000e+00" itree="22">
      <Node pos="s" depth="0" NCoef="0" IVar="1" Cut="1.8507410287857056e+00" cType="1" res="2.5194060057401657e-02" rms="1.1839275062084198e-01" purity="5.2632373571395874e-01" nType="0">
        <Node pos="l" depth="1" NCoef="0" IVar="12" Cut="-1.6604138612747192e+00" cType="1" res="7.8615332022309303e-03" rms="8.9420258998870850e-02" purity="4.9676796793937683e-01" nType="0">
          <Node pos="l" depth="2" NCoef="0" IVar="12" Cut="-1.8533958196640015e+00" cType="1" res="3.2429821789264679e-02" rms="1.1342285573482513e-01" purity="5.3055614233016968e-01" nType="0">
            <Node pos="l" depth="3" NCoef="0" IVar="8" Cut="2.9273951053619385e+00" cType="1" res="-1.0963378008455038e-03" rms="4.3833471834659576e-02" purity="4.3204346299171448e-01" nType="0">
              <Node pos="l" depth="4" NCoef="0" IVar="-1" Cut="0.0000000000000000e+00" cType="1" res="2.0032483339309692e-01" rms="1.7821479588747025e-02" purity="6.3486844301223755e-01" nType="-99"/>
              <Node pos="r" depth="4" NCoef="0" IVar="-1" Cut="0.0000000000000000e+00" cType="1" res="-3.1458142399787903e-01" rms="6.7088693380355835e-02" purity="0.0000000000000000e+00" nType="-99"/>
            </Node>
            <Node pos="r" depth="3" NCoef="0" IVar="-1" Cut="0.0000000000000000e+00" cType="1" res="3.8822600245475769e-01" rms="1.6658031940460205e-01" purity="7.2284644842147827e-01" nType="-99"/>
          </Node>
          <Node pos="r" depth="2" NCoef="0" IVar="8" Cut="2.9678782820701599e-01" cType="1" res="-1.5342404367402196e-03" rms="7.6255358755588531e-02" purity="4.8384615778923035e-01" nType="0">
            <Node pos="l" depth="3" NCoef="0" IVar="11" Cut="1.2831240892410278e-01" cType="1" res="-1.6978129744529724e-02" rms="1.0885947942733765e-01" purity="4.7986993193626404e-01" nType="0">
              <Node pos="l" depth="4" NCoef="0" IVar="-1" Cut="0.0000000000000000e+00" cType="1" res="-9.0401601791381836e-01" rms="2.1865585446357727e-01" purity="3.8735574483871460e-01" nType="-99"/>
              <Node pos="r" depth="4" NCoef="0" IVar="-1" Cut="0.0000000000000000e+00" cType="1" res="-7.3159001767635345e-02" rms="4.9970477819442749e-02" purity="5.0165408849716187e-01" nType="-99"/>
            </Node>
            <Node pos="r" depth="3" NCoef="0" IVar="10" Cut="9.3874704837799072e-01" cType="1" res="9.7798090428113937e-03" rms="3.3023968338966370e-02" purity="4.8675915598869324e-01" nType="0">
              <Node pos="l" depth="4" NCoef="0" IVar="-1" Cut="0.0000000000000000e+00" cType="1" res="-2.5461676716804504e-01" rms="6.8205571733415127e-03" purity="0.0000000000000000e+00" nType="-99"/>
              <Node pos="r" depth="4" NCoef="0" IVar="-1" Cut="0.0000000000000000e+00" cType="1" res="2.3201835155487061e-01" rms="4.1812397539615631e-02" purity="9.2602962255477905e-01" nType="-99"/>
            </Node>
          </Node>
        </Node>
        <Node pos="r" depth="1" NCoef="0" IVar="9" Cut="8.7726479396224022e-03" cType="1" res="1.3464765250682831e-01" rms="1.9534821808338165e-01" purity="7.1296638250350952e-01" nType="0">
          <Node pos="l" depth="2" NCoef="0" IVar="-1" Cut="0.0000000000000000e+00" cType="1" res="4.6895596385002136e-01" rms="2.4998667836189270e-01" purity="6.3486844301223755e-01" nType="-99"/>
          <Node pos="r" depth="2" NCoef="0" IVar="-1" Cut="0.0000000000000000e+00" cType="1" res="2.8520441055297852e-01" rms="8.8040910661220551e-02" purity="7.7665996551513672e-01" nType="-99"/>
        </Node>
      </Node>
    </BinaryTree>
    <BinaryTree type="DecisionTree" boostWeight="1.0000000000000000e+00" itree="23">
      <Node pos="s" depth="0" NCoef="0" IVar="12" Cut="-1.8419218063354492e+00" cType="1" res="5.6939306668937206e-03" rms="5.0349324941635132e-02" purity="5.4805505275726318e-01" nType="0">
        <Node pos="l" depth="1" NCoef="0" IVar="5" Cut="1.6078125238418579e+00" cType="1" res="-1.7319563776254654e-02" rms="7.5282342731952667e-02" purity="5.1417702436447144e-01" nType="0">
          <Node pos="l" depth="2" NCoef="0" IVar="12" Cut="-2.0723974704742432e+00" cType="1" res="-4.8433983465656638e-04" rms="4.0872902609407902e-03" purity="3.6692017316818237e-01" nType="0">
            <Node pos="l" depth="3" NCoef="0" IVar="-1" Cut="0.0000000000000000e+00" cType="1" res="1.7895887792110443e-01" rms="2.4358935188502073e-03" purity="5.8176332712173462e-01" nType="-99"/>
            <Node pos="r" depth="3" NCoef="0" IVar="-1" Cut="0.0000000000000000e+00" cType="1" res="-2.5240945816040039e-01" rms="4.5889792963862419e-03" purity="0.0000000000000000e+00" nType="-99"/>
          </Node>
          <Node pos="r" depth="2" NCoef="0" IVar="-1" Cut="0.0000000000000000e+00" cType="1" res="-3.0926281213760376e-01" rms="1.1444130539894104e-01" purity="7.3558837175369263e-01" nType="-99"/>
        </Node>
        <Node pos="r" depth="1" NCoef="0" IVar="12" Cut="-1.6478161811828613e+00" cType="1" res="1.2164033018052578e-02" rms="3.8257606327533722e-02" purity="5.5757963657379150e-01" nType="0">
          <Node pos="l" depth="2" NCoef="0" IVar="-1" Cut="0.0000000000000000e+00" cType="1" res="2.6918256282806396e-01" rms="6.3280515372753143e-02" purity="7.3007291555404663e-01" nType="-99"/>
          <Node pos="r" depth="2" NCoef="0" IVar="9" Cut="1.3079751282930374e-02" cType="1" res="7.0615787990391254e-03" rms="3.0356014147400856e-02" purity="5.3862595558166504e-01" nType="0">
            <Node pos="l" depth="3" NCoef="0" IVar="10" Cut="8.9774119853973389e-01" cType="1" res="-2.7976788114756346e-03" rms="1.2980113737285137e-02" purity="2.8392789885401726e-02" nType="0">
              <Node pos="l" depth="4" NCoef="0" IVar="-1" Cut="0.0000000000000000e+00" cType="1" res="-2.0704125985503197e-02" rms="7.5290692038834095e-03" purity="3.4268464893102646e-02" nType="-99"/>
              <Node pos="r" depth="4" NCoef="0" IVar="-1" Cut="0.0000000000000000e+00" cType="1" res="-2.6300060749053955e-01" rms="2.2833866998553276e-02" purity="0.0000000000000000e+00" nType="-99"/>
            </Node>
            <Node pos="r" depth="3" NCoef="0" IVar="9" Cut="2.0967492833733559e-02" cType="1" res="1.3734382577240467e-02" rms="3.6342952400445938e-02" purity="8.8395476341247559e-01" nType="0">
              <Node pos="l" depth="4" NCoef="0" IVar="-1" Cut="0.0000000000000000e+00" cType="1" res="2.7939799427986145e-01" rms="7.3558755218982697e-02" purity="6.3486844301223755e-01" nType="-99"/>
              <Node pos="r" depth="4" NCoef="0" IVar="-1" Cut="0.0000000000000000e+00" cType="1" res="2.0117023587226868e-01" rms="1.9231108948588371e-02" purity="9.2837452888488770e-01" nType="-99"/>
            </Node>
          </Node>
        </Node>
      </Node>
    </BinaryTree>
    <BinaryTree type="DecisionTree" boostWeight="1.0000000000000000e+00" itree="24">
      <Node pos="s" depth="0" NCoef="0" IVar="1" Cut="1.8852089643478394e+00" cType="1" res="1.0168785229325294e-02" rms="8.9744679629802704e-02" purity="5.6764703989028931e-01" nType="0">
        <Node pos="l" depth="1" NCoef="0" IVar="2" Cut="1.1211183547973633e+01" cType="1" res="1.9218333764001727e-03" rms="8.1813707947731018e-02" purity="5.5172884464263916e-01" nType="0">
          <Node pos="l" depth="2" NCoef="0" IVar="-1" Cut="0.0000000000000000e+00" cType="1" res="-5.6599783897399902e-01" rms="2.1231518685817719e-01" purity="4.9838605523109436e-01" nType="-99"/>
          <Node pos="r" depth="2" NCoef="0" IVar="12" Cut="2.0480492115020752e+00" cType="1" res="8.0393487587571144e-03" rms="5.7088825851678848e-02" purity="5.5576163530349731e-01" nType="0">
            <Node pos="l" depth="3" NCoef="0" IVar="12" Cut="1.7818790674209595e+00" cType="1" res="2.0173850934952497e-03" rms="3.7018582224845886e-02" purity="5.6375801563262939e-01" nType="0">
              <Node pos="l" depth="4" NCoef="0" IVar="-1" Cut="0.0000000000000000e+00" cType="1" res="-2.8178876265883446e-02" rms="3.8023088127374649e-02" purity="5.2942645549774170e-01" nType="-99"/>
              <Node pos="r" depth="4" NCoef="0" IVar="-1" Cut="0.0000000000000000e+00" cType="1" res="2.4325986206531525e-01" rms="2.3553751409053802e-02" purity="7.6120477914810181e-01" nType="-99"/>
            </Node>
            <Node pos="r" depth="3" NCoef="0" IVar="-1" Cut="0.0000000000000000e+00" cType="1" res="3.6536037921905518e-01" rms="1.4002099633216858e-01" purity="4.6506023406982422e-01" nType="-99"/>
          </Node>
        </Node>
        <Node pos="r" depth="1" NCoef="0" IVar="0" Cut="1.6096956729888916e+00" cType="1" res="6.8383492529392242e-02" rms="1.1742922663688660e-01" purity="6.8001276254653931e-01" nType="0">
          <Node pos="l" depth="2" NCoef="0" IVar="-1" Cut="0.0000000000000000e+00" cType="1" res="3.2875272631645203e-01" rms="1.3268235325813293e-01" purity="7.2284644842147827e-01" nType="-99"/>
          <Node pos="r" depth="2" NCoef="0" IVar="-1" Cut="0.0000000000000000e+00" cType="1" res="-3.3893555402755737e-02" rms="1.8806271255016327e-02" purity="6.3486844301223755e-01" nType="-99"/>
        </Node>
      </Node>
    </BinaryTree>
    <BinaryTree type="DecisionTree" boostWeight="1.0000000000000000e+00" itree="25">
      <Node pos="s" depth="0" NCoef="0" IVar="7" Cut="9.7015029907226562e+01" cType="1" res="1.2673706747591496e-02" rms="1.1397344619035721e-01" purity="4.6980205178260803e-01" nType="0">
        <Node pos="l" depth="1" NCoef="0" IVar="7" Cut="8.4372261047363281e+01" cType="1" res="2.9798306524753571e-02" rms="1.4504446089267731e-01" purity="7.6596802473068237e-01" nType="0">
          <Node pos="l" depth="2" NCoef="0" IVar="4" Cut="4.2208909988403320e-01" cType="1" res="1.3468348421156406e-02" rms="8.7079517543315887e-02" purity="7.8071492910385132e-01" nType="0">
            <Node pos="l" depth="3" NCoef="0" IVar="-1" Cut="0.0000000000000000e+00" cType="1" res="-5.2377641201019287e-01" rms="2.0991496741771698e-01" purity="1.6981962323188782e-01" nType="-99"/>
            <Node pos="r" depth="3" NCoef="0" IVar="9" Cut="8.1702247262001038e-03" cType="1" res="2.3602355271577835e-02" rms="4.7486379742622375e-02" purity="8.5384738445281982e-01" nType="0">
              <Node pos="l" depth="4" NCoef="0" IVar="-1" Cut="0.0000000000000000e+00" cType="1" res="2.7256506681442261e-01" rms="7.1127608418464661e-02" purity="7.2284644842147827e-01" nType="-99"/>
              <Node pos="r" depth="4" NCoef="0" IVar="-1" Cut="0.0000000000000000e+00" cType="1" res="2.0777688920497894e-01" rms="1.7352366819977760e-02" purity="8.9824414253234863e-01" nType="-99"/>
            </Node>
          </Node>
          <Node pos="r" depth="2" NCoef="0" IVar="-1" Cut="0.0000000000000000e+00" cType="1" res="1.4962087869644165e+00" rms="3.2049295306205750e-01" purity="6.5892797708511353e-01" nType="-99"/>
        </Node>
        <Node pos="r" depth="1" NCoef="0" IVar="10" Cut="9.9160003662109375e-01" cType="1" res="-8.7256273254752159e-03" rms="4.5919887721538544e-02" purity="9.9705532193183899e-02" nType="0">
          <Node pos="l" depth="2" NCoef="0" IVar="12" Cut="-1.6925712823867798e+00" cType="1" res="-2.2879452444612980e-03" rms="7.5909653678536415e-03" purity="2.3420909419655800e-02" nType="0">
            <Node pos="l" depth="3" NCoef="0" IVar="-1" Cut="0.0000000000000000e+00" cType="1" res="-2.5794076919555664e-01" rms="1.1220278218388557e-02" purity="0.0000000000000000e+00" nType="-99"/>
            <Node pos="r" depth="3" NCoef="0" IVar="12" Cut="1.9094430208206177e+00" cType="1" res="-1.4049257151782513e-03" rms="5.5761313997209072e-03" purity="3.1476803123950958e-02" nType="0">
              <Node pos="l" depth="4" NCoef="0" IVar="-1" Cut="0.0000000000000000e+00" cType="1" res="-1.1317788064479828e-01" rms="2.5364472530782223e-03" purity="4.1164550930261612e-02" nType="-99"/>
              <Node pos="r" depth="4" NCoef="0" IVar="-1" Cut="0.0000000000000000e+00" cType="1" res="-2.5703686475753784e-01" rms="9.9979285150766373e-03" purity="0.0000000000000000e+00" nType="-99"/>
            </Node>
          </Node>
          <Node pos="r" depth="2" NCoef="0" IVar="-1" Cut="0.0000000000000000e+00" cType="1" res="-3.1169188022613525e-01" rms="1.1074096709489822e-01" purity="5.3685677051544189e-01" nType="-99"/>
        </Node>
      </Node>
    </BinaryTree>
    <BinaryTree type="DecisionTree" boostWeight="1.0000000000000000e+00" itree="26">
      <Node pos="s" depth="0" NCoef="0" IVar="12" Cut="2.1552331447601318e+00" cType="1" res="1.6684426227584481e-03" rms="1.0878013819456100e-01" purity="4.7123876214027405e-01" nType="0">
        <Node pos="l" depth="1" NCoef="0" IVar="5" Cut="1.0135581344366074e-01" cType="1" res="-5.6975935585796833e-03" rms="9.0393885970115662e-02" purity="4.6242862939834595e-01" nType="0">
          <Node pos="l" depth="2" NCoef="0" IVar="-1" Cut="0.0000000000000000e+00" cType="1" res="-4.1662237048149109e-01" rms="1.7946797609329224e-01" purity="0.0000000000000000e+00" nType="-99"/>
          <Node pos="r" depth="2" NCoef="0" IVar="0" Cut="1.4863826036453247e+00" cType="1" res="6.6482997499406338e-04" rms="7.7549256384372711e-02" purity="4.9016535282135010e-01" nType="0">
            <Node pos="l" depth="3" NCoef="0" IVar="9" Cut="1.4162173494696617e-02" cType="1" res="-1.1689811013638973e-02" rms="8.8736511766910553e-02" purity="3.2461044192314148e-01" nType="0">
              <Node pos="l" depth="4" NCoef="0" IVar="-1" Cut="0.0000000000000000e+00" cType="1" res="8.1707611680030823e-02" rms="3.0466591939330101e-02" purity="9.1166742146015167e-02" nType="-99"/>
              <Node pos="r" depth="4" NCoef="0" IVar="-1" Cut="0.0000000000000000e+00" cType="1" res="-3.8767373561859131e-01" rms="1.3654658198356628e-01" purity="7.1928656101226807e-01" nType="-99"/>
            </Node>
            <Node pos="r" depth="3" NCoef="0" IVar="4" Cut="3.9928731322288513e-01" cType="1" res="1.5533501282334328e-02" rms="5.8054145425558090e-02" purity="6.8940877914428711e-01" nType="0">
              <Node pos="l" depth="4" NCoef="0" IVar="-1" Cut="0.0000000000000000e+00" cType="1" res="2.9930892586708069e-01" rms="1.1792818456888199e-01" purity="6.1250394582748413e-01" nType="-99"/>
              <Node pos="r" depth="4" NCoef="0" IVar="-1" Cut="0.0000000000000000e+00" cType="1" res="1.5091209113597870e-01" rms="1.4297710731625557e-02" purity="7.0716691017150879e-01" nType="-99"/>
            </Node>
          </Node>
        </Node>
        <Node pos="r" depth="1" NCoef="0" IVar="-1" Cut="0.0000000000000000e+00" cType="1" res="5.9053510427474976e-01" rms="2.3362042009830475e-01" purity="6.0715687274932861e-01" nType="-99"/>
      </Node>
    </BinaryTree>
    <BinaryTree type="DecisionTree" boostWeight="1.0000000000000000e+00" itree="27">
      <Node pos="s" depth="0" NCoef="0" IVar="6" Cut="4.2164835031144321e-04" cType="1" res="-6.1843392904847860e-04" rms="1.1612343043088913e-01" purity="4.6374067664146423e-01" nType="0">
        <Node pos="l" depth="1" NCoef="0" IVar="-1" Cut="0.0000000000000000e+00" cType="1" res="-8.6664193868637085e-01" rms="2.3001389205455780e-01" purity="7.7665996551513672e-01" nType="-99"/>
        <Node pos="r" depth="1" NCoef="0" IVar="4" Cut="2.4167595803737640e-01" cType="1" res="6.1667282134294510e-03" rms="9.8121337592601776e-02" purity="4.3792027235031128e-01" nType="0">
          <Node pos="l" depth="2" NCoef="0" IVar="3" Cut="9.2857513427734375e+01" cType="1" res="5.4040886461734772e-02" rms="1.6041219234466553e-01" purity="1.6981962323188782e-01" nType="0">
            <Node pos="l" depth="3" NCoef="0" IVar="-1" Cut="0.0000000000000000e+00" cType="1" res="4.5159676671028137e-01" rms="2.1204625070095062e-01" purity="3.6692017316818237e-01" nType="-99"/>
            <Node pos="r" depth="3" NCoef="0" IVar="-1" Cut="0.0000000000000000e+00" cType="1" res="-2.7242383360862732e-01" rms="2.5370460003614426e-02" purity="0.0000000000000000e+00" nType="-99"/>
          </Node>
          <Node pos="r" depth="2" NCoef="0" IVar="6" Cut="8.4181763231754303e-03" cType="1" res="-7.2201061993837357e-04" rms="8.3266220986843109e-02" purity="4.7649797797203064e-01" nType="0">
            <Node pos="l" depth="3" NCoef="0" IVar="7" Cut="7.9875831604003906e+01" cType="1" res="6.2893661670386791e-03" rms="6.3282810151576996e-02" purity="5.8308160305023193e-01" nType="0">
              <Node pos="l" depth="4" NCoef="0" IVar="-1" Cut="0.0000000000000000e+00" cType="1" res="2.3426553606987000e-01" rms="4.6781476587057114e-02" purity="8.4854459762573242e-01" nType="-99"/>
              <Node pos="r" depth="4" NCoef="0" IVar="-1" Cut="0.0000000000000000e+00" cType="1" res="-1.8936739861965179e-01" rms="7.5132243335247040e-02" purity="2.7322599291801453e-01" nType="-99"/>
            </Node>
            <Node pos="r" depth="3" NCoef="0" IVar="0" Cut="1.3532819747924805e+00" cType="1" res="-2.4913679808378220e-02" rms="1.2760451436042786e-01" purity="1.0874771326780319e-01" nType="0">
              <Node pos="l" depth="4" NCoef="0" IVar="-1" Cut="0.0000000000000000e+00" cType="1" res="-6.8435430526733398e-02" rms="3.1510626431554556e-03" purity="1.5822914242744446e-01" nType="-99"/>
              <Node pos="r" depth="4" NCoef="0" IVar="-1" Cut="0.0000000000000000e+00" cType="1" res="-7.9777079820632935e-01" rms="2.1872121095657349e-01" purity="0.0000000000000000e+00" nType="-99"/>
            </Node>
          </Node>
        </Node>
      </Node>
    </BinaryTree>
    <BinaryTree type="DecisionTree" boostWeight="1.0000000000000000e+00" itree="28">
      <Node pos="s" depth="0" NCoef="0" IVar="13" Cut="-2.1864950656890869e+00" cType="1" res="8.8311117142438889e-03" rms="1.4293329417705536e-01" purity="5.1455831527709961e-01" nType="0">
        <Node pos="l" depth="1" NCoef="0" IVar="-1" Cut="0.0000000000000000e+00" cType="1" res="-4.4228982925415039e-01" rms="2.4461343884468079e-01" purity="5.3685677051544189e-01" nType="-99"/>
        <Node pos="r" depth="1" NCoef="0" IVar="9" Cut="7.3915915563702583e-03" cType="1" res="2.1066863089799881e-02" rms="1.2260518968105316e-01" purity="5.1251149177551270e-01" nType="0">
          <Node pos="l" depth="2" NCoef="0" IVar="9" Cut="6.1153541319072247e-03" cType="1" res="8.4303908050060272e-02" rms="1.9565536081790924e-01" purity="2.4752657115459442e-01" nType="0">
            <Node pos="l" depth="3" NCoef="0" IVar="5" Cut="6.7163324356079102e-01" cType="1" res="-6.0125240124762058e-03" rms="3.6249451339244843e-02" purity="5.0782792270183563e-02" nType="0">
              <Node pos="l" depth="4" NCoef="0" IVar="-1" Cut="0.0000000000000000e+00" cType="1" res="-2.8658476471900940e-01" rms="4.2779013514518738e-02" purity="0.0000000000000000e+00" nType="-99"/>
              <Node pos="r" depth="4" NCoef="0" IVar="-1" Cut="0.0000000000000000e+00" cType="1" res="1.6276267170906067e-01" rms="2.2069767117500305e-02" purity="1.0707350820302963e-01" nType="-99"/>
            </Node>
            <Node pos="r" depth="3" NCoef="0" IVar="-1" Cut="0.0000000000000000e+00" cType="1" res="4.9052688479423523e-01" rms="2.4789996445178986e-01" purity="6.9864249229431152e-01" nType="-99"/>
          </Node>
          <Node pos="r" depth="2" NCoef="0" IVar="8" Cut="1.9220948219299316e-01" cType="1" res="-3.3701099455356598e-03" rms="6.2492676079273224e-02" purity="6.1491072177886963e-01" nType="0">
            <Node pos="l" depth="3" NCoef="0" IVar="-1" Cut="0.0000000000000000e+00" cType="1" res="-9.8578494787216187e-01" rms="1.8492132425308228e-01" purity="5.8176338672637939e-01" nType="-99"/>
            <Node pos="r" depth="3" NCoef="0" IVar="9" Cut="9.3192324042320251e-02" cType="1" res="1.0404351633042097e-03" rms="2.3606590926647186e-02" purity="6.1834806203842163e-01" nType="0">
              <Node pos="l" depth="4" NCoef="0" IVar="-1" Cut="0.0000000000000000e+00" cType="1" res="-8.6165711283683777e-02" rms="2.2174285724759102e-02" purity="5.2527213096618652e-01" nType="-99"/>
              <Node pos="r" depth="4" NCoef="0" IVar="-1" Cut="0.0000000000000000e+00" cType="1" res="2.6226717233657837e-01" rms="2.2514855489134789e-02" purity="1.0000000000000000e+00" nType="-99"/>
            </Node>
          </Node>
        </Node>
      </Node>
    </BinaryTree>
    <BinaryTree type="DecisionTree" boostWeight="1.0000000000000000e+00" itree="29">
      <Node pos="s" depth="0" NCoef="0" IVar="1" Cut="2.0045795440673828e+00" cType="1" res="4.5012333430349827e-03" rms="7.7165096998214722e-02" purity="5.1417696475982666e-01" nType="0">
        <Node pos="l" depth="1" NCoef="0" IVar="1" Cut="1.7937233448028564e+00" cType="1" res="9.8317852243781090e-03" rms="5.5576473474502563e-02" purity="5.0796508789062500e-01" nType="0">
          <Node pos="l" depth="2" NCoef="0" IVar="0" Cut="1.0329771041870117e+00" cType="1" res="3.1012103427201509e-03" rms="3.3258508890867233e-02" purity="4.9490910768508911e-01" nType="0">
            <Node pos="l" depth="3" NCoef="0" IVar="-1" Cut="0.0000000000000000e+00" cType="1" res="2.7920100092887878e-01" rms="5.4108791053295135e-02" purity="6.1250394582748413e-01" nType="-99"/>
            <Node pos="r" depth="3" NCoef="0" IVar="2" Cut="2.7457540512084961e+01" cType="1" res="3.1812658562557772e-05" rms="2.8818059712648392e-02" purity="4.8479220271110535e-01" nType="0">
              <Node pos="l" depth="4" NCoef="0" IVar="-1" Cut="0.0000000000000000e+00" cType="1" res="-1.9756576418876648e-01" rms="5.3137958049774170e-02" purity="6.2224608659744263e-01" nType="-99"/>
              <Node pos="r" depth="4" NCoef="0" IVar="-1" Cut="0.0000000000000000e+00" cType="1" res="1.0848841816186905e-01" rms="2.0104315131902695e-02" purity="4.6007150411605835e-01" nType="-99"/>
            </Node>
          </Node>
          <Node pos="r" depth="2" NCoef="0" IVar="-1" Cut="0.0000000000000000e+00" cType="1" res="3.2774186134338379e-01" rms="1.3837081193923950e-01" purity="6.5479218959808350e-01" nType="-99"/>
        </Node>
        <Node pos="r" depth="1" NCoef="0" IVar="-1" Cut="0.0000000000000000e+00" cType="1" res="-4.9565270543098450e-01" rms="1.8292354047298431e-01" purity="5.8176332712173462e-01" nType="-99"/>
      </Node>
    </BinaryTree>
    <BinaryTree type="DecisionTree" boostWeight="1.0000000000000000e+00" itree="30">
      <Node pos="s" depth="0" NCoef="0" IVar="11" Cut="9.8180755972862244e-02" cType="1" res="6.9060460664331913e-03" rms="1.2049448490142822e-01" purity="5.1270848512649536e-01" nType="0">
        <Node pos="l" depth="1" NCoef="0" IVar="-1" Cut="0.0000000000000000e+00" cType="1" res="-6.9635409116744995e-01" rms="2.7360543608665466e-01" purity="3.1678295135498047e-01" nType="-99"/>
        <Node pos="r" depth="1" NCoef="0" IVar="3" Cut="9.9702558517456055e+00" cType="1" res="1.5107973478734493e-02" rms="9.8944678902626038e-02" purity="5.2408176660537720e-01" nType="0">
          <Node pos="l" depth="2" NCoef="0" IVar="-1" Cut="0.0000000000000000e+00" cType="1" res="3.2025095820426941e-01" rms="1.1447667330503464e-01" purity="6.8488293886184692e-01" nType="-99"/>
